<?xml version="1.0"?>
<opencv_storage>
<opencv_ml_svm>
  <format>3</format>
  <svmType>C_SVC</svmType>
  <kernel>
    <type>LINEAR</type></kernel>
  <C>1.0000000000000001e-01</C>
  <term_criteria><epsilon>1.1920928955078125e-07</epsilon>
    <iterations>1000</iterations></term_criteria>
  <var_count>4800</var_count>
  <class_count>2</class_count>
  <class_labels type_id="opencv-matrix">
    <rows>2</rows>
    <cols>1</cols>
    <dt>i</dt>
    <data>
      0 1</data></class_labels>
  <sv_total>1</sv_total>
  <support_vectors>
    <_>
      4.69800085e-04 4.69800085e-04 4.69800085e-04 1.75693029e-04
      1.75693029e-04 1.75693029e-04 1.55144095e-04 1.55144095e-04
      1.55144095e-04 8.16358079e-06 8.16358079e-06 8.16358079e-06
      3.59147016e-05 3.59147016e-05 3.59147016e-05 1.27263163e-04
      1.27263163e-04 1.27263163e-04 8.71482771e-05 8.71482771e-05
      8.71482771e-05 3.63000399e-05 3.63000399e-05 3.63000399e-05
      -1.58202567e-06 -1.58202567e-06 -1.58202567e-06 1.07639542e-04
      1.07639542e-04 1.07639542e-04 1.00378111e-05 1.00378111e-05
      1.00378111e-05 -8.56911993e-06 -8.56911993e-06 -8.56911993e-06
      4.11443762e-05 4.11443762e-05 4.11443762e-05 5.04402342e-05
      5.04402342e-05 5.04402342e-05 1.12823851e-04 1.12823851e-04
      1.12823851e-04 9.84638245e-05 9.84638245e-05 9.84638245e-05
      1.20893768e-04 1.20893768e-04 1.20893768e-04 1.18994802e-04
      1.18994802e-04 1.18994802e-04 2.36546603e-05 2.36546603e-05
      2.36546603e-05 9.90317785e-05 9.90317785e-05 9.90317785e-05
      7.35382710e-05 7.35382710e-05 7.35382710e-05 -2.21921910e-05
      -2.21921910e-05 -2.21921910e-05 8.31859415e-06 8.31859415e-06
      8.31859415e-06 -8.06003882e-05 -8.06003882e-05 -8.06003882e-05
      4.14640926e-05 4.14640926e-05 4.14640926e-05 -9.80004916e-05
      -9.80004916e-05 -9.80004916e-05 -1.90139526e-05 -1.90139526e-05
      -1.90139526e-05 2.05254473e-04 2.05254473e-04 2.05254473e-04
      1.71520995e-04 1.71520995e-04 1.71520995e-04 -2.75247476e-05
      -2.75247476e-05 -2.75247476e-05 4.11795809e-05 4.11795809e-05
      4.11795809e-05 9.91148918e-05 9.91148918e-05 9.91148918e-05
      4.41903758e-05 4.41903758e-05 4.41903758e-05 2.15900058e-04
      2.15900058e-04 2.15900058e-04 1.61346543e-04 1.61346543e-04
      1.61346543e-04 1.05308311e-04 1.05308311e-04 1.05308311e-04
      -9.94954007e-06 -9.94954007e-06 -9.94954007e-06 -3.23468485e-05
      -3.23468485e-05 -3.23468485e-05 1.32402056e-04 1.32402056e-04
      1.32402056e-04 1.21443663e-04 1.21443663e-04 1.21443663e-04
      3.92395683e-04 3.92395683e-04 3.92395683e-04 2.00720402e-04
      2.00720402e-04 2.00720402e-04 1.60691590e-04 1.60691590e-04
      1.60691590e-04 8.69817231e-05 8.69817231e-05 8.69817231e-05
      7.56883164e-05 7.56883164e-05 7.56883164e-05 1.38814605e-04
      1.38814605e-04 1.38814605e-04 9.30451133e-05 9.30451133e-05
      9.30451133e-05 -1.34193440e-04 -1.34193440e-04 -1.34193440e-04
      -1.80980598e-04 -1.80980598e-04 -1.80980598e-04 8.68389816e-06
      8.68389816e-06 8.68389816e-06 9.73053684e-05 9.73053684e-05
      9.73053684e-05 9.30414826e-05 9.30414826e-05 9.30414826e-05
      -8.70616532e-06 -8.70616532e-06 -8.70616532e-06 -7.24804195e-05
      -7.24804195e-05 -7.24804195e-05 -3.57337376e-05 -3.57337376e-05
      -3.57337376e-05 -4.72724059e-05 -4.72724059e-05 -4.72724059e-05
      -3.43859101e-05 -3.43859101e-05 -3.43859101e-05 5.88671246e-05
      5.88671246e-05 5.88671246e-05 7.46698424e-05 7.46698424e-05
      7.46698424e-05 1.06709522e-04 1.06709522e-04 1.06709522e-04
      9.51656839e-05 9.51656839e-05 9.51656839e-05 1.16959700e-06
      1.16959700e-06 1.16959700e-06 4.66713209e-05 4.66713209e-05
      4.66713209e-05 5.98538063e-05 5.98538063e-05 5.98538063e-05
      1.37119487e-05 1.37119487e-05 1.37119487e-05 -6.64936015e-05
      -6.64936015e-05 -6.64936015e-05 -6.20915380e-05 -6.20915380e-05
      -6.20915380e-05 -3.70080379e-05 -3.70080379e-05 -3.70080379e-05
      2.67208434e-05 2.67208434e-05 2.67208434e-05 8.19355046e-05
      8.19355046e-05 8.19355046e-05 9.36387587e-05 9.36387587e-05
      9.36387587e-05 -3.84295272e-05 -3.84295272e-05 -3.84295272e-05
      -6.89362641e-05 -6.89362641e-05 -6.89362641e-05 8.46922849e-05
      8.46922849e-05 8.46922849e-05 1.59978765e-04 1.59978765e-04
      1.59978765e-04 1.72449174e-04 1.72449174e-04 1.72449174e-04
      -9.91580600e-05 -9.91580600e-05 -9.91580600e-05 -8.88093564e-05
      -8.88093564e-05 -8.88093564e-05 7.60598323e-06 7.60598323e-06
      7.60598323e-06 -2.42492515e-05 -2.42492515e-05 -2.42492515e-05
      2.36441745e-04 2.36441745e-04 2.36441745e-04 9.49932613e-08
      9.49932613e-08 9.49932613e-08 2.10004746e-05 2.10004746e-05
      2.10004746e-05 -2.98228933e-05 -2.98228933e-05 -2.98228933e-05
      4.59297735e-05 4.59297735e-05 4.59297735e-05 7.41191980e-05
      7.41191980e-05 7.41191980e-05 1.55252026e-04 1.55252026e-04
      1.55252026e-04 5.09933452e-05 5.09933452e-05 5.09933452e-05
      -1.31243185e-04 -1.31243185e-04 -1.31243185e-04 -1.28795757e-04
      -1.28795757e-04 -1.28795757e-04 -9.50674876e-05 -9.50674876e-05
      -9.50674876e-05 -1.87485402e-05 -1.87485402e-05 -1.87485402e-05
      4.79834034e-06 4.79834034e-06 4.79834034e-06 -8.21397552e-05
      -8.21397552e-05 -8.21397552e-05 -7.55378860e-05 -7.55378860e-05
      -7.55378860e-05 -2.18946820e-06 -2.18946820e-06 -2.18946820e-06
      4.10952998e-05 4.10952998e-05 4.10952998e-05 7.15447095e-05
      7.15447095e-05 7.15447095e-05 5.58864886e-05 5.58864886e-05
      5.58864886e-05 4.21869445e-05 4.21869445e-05 4.21869445e-05
      1.11558313e-06 1.11558313e-06 1.11558313e-06 -3.51630515e-05
      -3.51630515e-05 -3.51630515e-05 -1.51029717e-05 -1.51029717e-05
      -1.51029717e-05 1.95873145e-05 1.95873145e-05 1.95873145e-05
      1.29889770e-04 1.29889770e-04 1.29889770e-04 9.80928016e-05
      9.80928016e-05 9.80928016e-05 3.04943296e-05 3.04943296e-05
      3.04943296e-05 1.89551683e-05 1.89551683e-05 1.89551683e-05
      5.29549943e-05 5.29549943e-05 5.29549943e-05 3.79718949e-05
      3.79718949e-05 3.79718949e-05 2.78838306e-05 2.78838306e-05
      2.78838306e-05 -1.46582504e-04 -1.46582504e-04 -1.46582504e-04
      -2.53967766e-04 -2.53967766e-04 -2.53967766e-04 -1.07023217e-04
      -1.07023217e-04 -1.07023217e-04 -3.24612847e-05 -3.24612847e-05
      -3.24612847e-05 6.36298137e-05 6.36298137e-05 6.36298137e-05
      -1.97193385e-05 -1.97193385e-05 -1.97193385e-05 -5.99187479e-05
      -5.99187479e-05 -5.99187479e-05 6.33473537e-05 6.33473537e-05
      6.33473537e-05 8.32799196e-05 8.32799196e-05 8.32799196e-05
      2.37498112e-04 2.37498112e-04 2.37498112e-04 2.07726098e-05
      2.07726098e-05 2.07726098e-05 8.91483523e-06 8.91483523e-06
      8.91483523e-06 1.03406455e-05 1.03406455e-05 1.03406455e-05
      -4.82443720e-05 -4.82443720e-05 -4.82443720e-05 -8.73267709e-05
      -8.73267709e-05 -8.73267709e-05 -2.12289233e-05 -2.12289233e-05
      -2.12289233e-05 -2.64562223e-05 -2.64562223e-05 -2.64562223e-05
      -9.24312480e-05 -9.24312480e-05 -9.24312480e-05 -7.69337130e-05
      -7.69337130e-05 -7.69337130e-05 1.80586303e-05 1.80586303e-05
      1.80586303e-05 5.09250713e-05 5.09250713e-05 5.09250713e-05
      6.40460712e-05 6.40460712e-05 6.40460712e-05 -3.63845720e-05
      -3.63845720e-05 -3.63845720e-05 -9.60100624e-06 -9.60100624e-06
      -9.60100624e-06 3.39502330e-05 3.39502330e-05 3.39502330e-05
      1.16636293e-05 1.16636293e-05 1.16636293e-05 2.39676683e-05
      2.39676683e-05 2.39676683e-05 4.56044290e-05 4.56044290e-05
      4.56044290e-05 4.38036404e-05 4.38036404e-05 4.38036404e-05
      -3.18056955e-05 -3.18056955e-05 -3.18056955e-05 2.68101739e-05
      2.68101739e-05 2.68101739e-05 4.15273607e-05 4.15273607e-05
      4.15273607e-05 3.30216571e-05 3.30216571e-05 3.30216571e-05
      3.04863879e-05 3.04863879e-05 3.04863879e-05 -1.25917413e-05
      -1.25917413e-05 -1.25917413e-05 -9.03370164e-06 -9.03370164e-06
      -9.03370164e-06 5.72167155e-05 5.72167155e-05 5.72167155e-05
      4.83168769e-05 4.83168769e-05 4.83168769e-05 9.72504131e-06
      9.72504131e-06 9.72504131e-06 7.79687107e-05 7.79687107e-05
      7.79687107e-05 7.85043521e-05 7.85043521e-05 7.85043521e-05
      -6.95768103e-05 -6.95768103e-05 -6.95768103e-05 -5.23267445e-05
      -5.23267445e-05 -5.23267445e-05 -4.77244830e-05 -4.77244830e-05
      -4.77244830e-05 -1.16270683e-04 -1.16270683e-04 -1.16270683e-04
      -8.39081622e-06 -8.39081622e-06 -8.39081622e-06 2.58878645e-05
      2.58878645e-05 2.58878645e-05 4.56893031e-05 4.56893031e-05
      4.56893031e-05 1.11191148e-04 1.11191148e-04 1.11191148e-04
      1.72971369e-04 1.72971369e-04 1.72971369e-04 5.86591050e-05
      5.86591050e-05 5.86591050e-05 8.44069946e-05 8.44069946e-05
      8.44069946e-05 1.88585800e-05 1.88585800e-05 1.88585800e-05
      1.50476171e-05 1.50476171e-05 1.50476171e-05 2.45811152e-05
      2.45811152e-05 2.45811152e-05 2.22132676e-05 2.22132676e-05
      2.22132676e-05 4.20097131e-05 4.20097131e-05 4.20097131e-05
      -7.17651783e-05 -7.17651783e-05 -7.17651783e-05 -8.93120887e-06
      -8.93120887e-06 -8.93120887e-06 1.10978239e-04 1.10978239e-04
      1.10978239e-04 5.92907854e-05 5.92907854e-05 5.92907854e-05
      1.81599225e-05 1.81599225e-05 1.81599225e-05 -1.36586741e-05
      -1.36586741e-05 -1.36586741e-05 8.15822932e-05 8.15822932e-05
      8.15822932e-05 4.03470221e-05 4.03470221e-05 4.03470221e-05
      2.85050464e-05 2.85050464e-05 2.85050464e-05 1.76868289e-05
      1.76868289e-05 1.76868289e-05 6.09290400e-05 6.09290400e-05
      6.09290400e-05 2.38687862e-05 2.38687862e-05 2.38687862e-05
      -9.73006318e-05 -9.73006318e-05 -9.73006318e-05 -1.15486982e-05
      -1.15486982e-05 -1.15486982e-05 -5.64769616e-05 -5.64769616e-05
      -5.64769616e-05 -9.51987022e-05 -9.51987022e-05 -9.51987022e-05
      -3.20510699e-05 -3.20510699e-05 -3.20510699e-05 -7.00163728e-05
      -7.00163728e-05 -7.00163728e-05 2.92652257e-05 2.92652257e-05
      2.92652257e-05 3.27722191e-05 3.27722191e-05 3.27722191e-05
      -1.61211065e-05 -1.61211065e-05 -1.61211065e-05 3.25188194e-05
      3.25188194e-05 3.25188194e-05 1.46719894e-05 1.46719894e-05
      1.46719894e-05 9.42051774e-05 9.42051774e-05 9.42051774e-05
      2.93033481e-05 2.93033481e-05 2.93033481e-05 -1.39633757e-05
      -1.39633757e-05 -1.39633757e-05 1.04458610e-04 1.04458610e-04
      1.04458610e-04 4.41884185e-06 4.41884185e-06 4.41884185e-06
      -1.04313673e-04 -1.04313673e-04 -1.04313673e-04 -1.95995002e-04
      -1.95995002e-04 -1.95995002e-04 -1.64178360e-04 -1.64178360e-04
      -1.64178360e-04 4.77997019e-05 4.77997019e-05 4.77997019e-05
      1.14038929e-04 1.14038929e-04 1.14038929e-04 -9.41856706e-05
      -9.41856706e-05 -9.41856706e-05 -9.82455604e-05 -9.82455604e-05
      -9.82455604e-05 -7.61673437e-05 -7.61673437e-05 -7.61673437e-05
      -4.97193141e-05 -4.97193141e-05 -4.97193141e-05 -2.71861481e-05
      -2.71861481e-05 -2.71861481e-05 -6.90901434e-05 -6.90901434e-05
      -6.90901434e-05 -9.50758695e-05 -9.50758695e-05 -9.50758695e-05
      -8.26897667e-05 -8.26897667e-05 -8.26897667e-05 -1.55323596e-06
      -1.55323596e-06 -1.55323596e-06 1.63318600e-05 1.63318600e-05
      1.63318600e-05 -7.81051494e-05 -7.81051494e-05 -7.81051494e-05
      -5.28732926e-05 -5.28732926e-05 -5.28732926e-05 -1.11659292e-05
      -1.11659292e-05 -1.11659292e-05 1.11422662e-04 1.11422662e-04
      1.11422662e-04 1.30909437e-04 1.30909437e-04 1.30909437e-04
      6.56517150e-05 6.56517150e-05 6.56517150e-05 4.06201398e-05
      4.06201398e-05 4.06201398e-05 2.87551138e-05 2.87551138e-05
      2.87551138e-05 3.00227953e-06 3.00227953e-06 3.00227953e-06
      -4.58998002e-05 -4.58998002e-05 -4.58998002e-05 -2.33420110e-07
      -2.33420110e-07 -2.33420110e-07 -6.19860148e-05 -6.19860148e-05
      -6.19860148e-05 -5.14896201e-05 -5.14896201e-05 -5.14896201e-05
      1.14691366e-05 1.14691366e-05 1.14691366e-05 -2.43371906e-05
      -2.43371906e-05 -2.43371906e-05 6.71634234e-06 6.71634234e-06
      6.71634234e-06 1.63415516e-05 1.63415516e-05 1.63415516e-05
      -7.40237738e-05 -7.40237738e-05 -7.40237738e-05 -7.14501075e-05
      -7.14501075e-05 -7.14501075e-05 -1.11571870e-04 -1.11571870e-04
      -1.11571870e-04 4.38639654e-05 4.38639654e-05 4.38639654e-05
      -5.34568926e-06 -5.34568926e-06 -5.34568926e-06 -1.29936336e-04
      -1.29936336e-04 -1.29936336e-04 -3.46362758e-05 -3.46362758e-05
      -3.46362758e-05 -6.68247012e-05 -6.68247012e-05 -6.68247012e-05
      6.56473931e-05 6.56473931e-05 6.56473931e-05 -3.24624634e-05
      -3.24624634e-05 -3.24624634e-05 -7.57177841e-05 -7.57177841e-05
      -7.57177841e-05 -2.05491771e-04 -2.05491771e-04 -2.05491771e-04
      5.41138579e-05 5.41138579e-05 5.41138579e-05 -2.08693436e-05
      -2.08693436e-05 -2.08693436e-05 -6.58775971e-05 -6.58775971e-05
      -6.58775971e-05 -2.20131096e-05 -2.20131096e-05 -2.20131096e-05
      -4.00147146e-05 -4.00147146e-05 -4.00147146e-05 -2.95622467e-05
      -2.95622467e-05 -2.95622467e-05 -8.38249980e-05 -8.38249980e-05
      -8.38249980e-05 -4.89937374e-05 -4.89937374e-05 -4.89937374e-05
      1.49155958e-05 1.49155958e-05 1.49155958e-05 3.09969291e-05
      3.09969291e-05 3.09969291e-05 -5.18205961e-05 -5.18205961e-05
      -5.18205961e-05 -7.95301748e-05 -7.95301748e-05 -7.95301748e-05
      -4.98994195e-05 -4.98994195e-05 -4.98994195e-05 5.40408246e-06
      5.40408246e-06 5.40408246e-06 4.71635394e-05 4.71635394e-05
      4.71635394e-05 7.93218278e-05 7.93218278e-05 7.93218278e-05
      3.60616614e-05 3.60616614e-05 3.60616614e-05 3.67013636e-05
      3.67013636e-05 3.67013636e-05 3.35198310e-05 3.35198310e-05
      3.35198310e-05 4.51827000e-05 4.51827000e-05 4.51827000e-05
      4.02075493e-05 4.02075493e-05 4.02075493e-05 8.79954096e-05
      8.79954096e-05 8.79954096e-05 6.72493916e-05 6.72493916e-05
      6.72493916e-05 8.52097437e-05 8.52097437e-05 8.52097437e-05
      1.17620846e-04 1.17620846e-04 1.17620846e-04 2.58098607e-05
      2.58098607e-05 2.58098607e-05 -4.36134360e-05 -4.36134360e-05
      -4.36134360e-05 4.36406808e-05 4.36406808e-05 4.36406808e-05
      -6.06886897e-05 -6.06886897e-05 -6.06886897e-05 -8.47725532e-05
      -8.47725532e-05 -8.47725532e-05 1.04473102e-05 1.04473102e-05
      1.04473102e-05 9.68914683e-05 9.68914683e-05 9.68914683e-05
      7.01614090e-06 7.01614090e-06 7.01614090e-06 -5.49513934e-05
      -5.49513934e-05 -5.49513934e-05 -7.81672061e-05 -7.81672061e-05
      -7.81672061e-05 -2.11547449e-04 -2.11547449e-04 -2.11547449e-04
      -3.85026397e-05 -3.85026397e-05 -3.85026397e-05 -9.02674801e-05
      -9.02674801e-05 -9.02674801e-05 3.32370255e-05 3.32370255e-05
      3.32370255e-05 3.18204839e-05 3.18204839e-05 3.18204839e-05
      2.11417264e-05 2.11417264e-05 2.11417264e-05 5.22902337e-05
      5.22902337e-05 5.22902337e-05 8.07336401e-05 8.07336401e-05
      8.07336401e-05 1.03734665e-05 1.03734665e-05 1.03734665e-05
      -2.74557333e-05 -2.74557333e-05 -2.74557333e-05 -8.68735078e-05
      -8.68735078e-05 -8.68735078e-05 -1.43426339e-04 -1.43426339e-04
      -1.43426339e-04 -7.15984106e-06 -7.15984106e-06 -7.15984106e-06
      2.71694353e-05 2.71694353e-05 2.71694353e-05 4.59047587e-05
      4.59047587e-05 4.59047587e-05 -6.87005595e-05 -6.87005595e-05
      -6.87005595e-05 -1.13985152e-04 -1.13985152e-04 -1.13985152e-04
      -1.58150040e-04 -1.58150040e-04 -1.58150040e-04 -3.98370094e-06
      -3.98370094e-06 -3.98370094e-06 5.76883358e-05 5.76883358e-05
      5.76883358e-05 5.34766259e-05 5.34766259e-05 5.34766259e-05
      1.33669837e-05 1.33669837e-05 1.33669837e-05 2.76754708e-05
      2.76754708e-05 2.76754708e-05 5.57370477e-05 5.57370477e-05
      5.57370477e-05 3.80863639e-05 3.80863639e-05 3.80863639e-05
      2.90432240e-06 2.90432240e-06 2.90432240e-06 1.30351546e-04
      1.30351546e-04 1.30351546e-04 2.08226586e-04 2.08226586e-04
      2.08226586e-04 2.68729753e-04 2.68729753e-04 2.68729753e-04
      2.25539610e-04 2.25539610e-04 2.25539610e-04 9.18802107e-05
      9.18802107e-05 9.18802107e-05 7.62970831e-06 7.62970831e-06
      7.62970831e-06 2.26718148e-05 2.26718148e-05 2.26718148e-05
      -2.76687424e-05 -2.76687424e-05 -2.76687424e-05 -5.25226787e-05
      -5.25226787e-05 -5.25226787e-05 -1.42672661e-07 -1.42672661e-07
      -1.42672661e-07 -8.59781212e-05 -8.59781212e-05 -8.59781212e-05
      -1.22851823e-04 -1.22851823e-04 -1.22851823e-04 -8.07403285e-06
      -8.07403285e-06 -8.07403285e-06 -2.49859186e-05 -2.49859186e-05
      -2.49859186e-05 -1.38159798e-04 -1.38159798e-04 -1.38159798e-04
      -8.26614996e-05 -8.26614996e-05 -8.26614996e-05 -1.82869790e-05
      -1.82869790e-05 -1.82869790e-05 -9.35994321e-05 -9.35994321e-05
      -9.35994321e-05 1.64456142e-04 1.64456142e-04 1.64456142e-04
      -2.68703843e-05 -2.68703843e-05 -2.68703843e-05 1.32642468e-04
      1.32642468e-04 1.32642468e-04 1.01306774e-04 1.01306774e-04
      1.01306774e-04 6.52291637e-05 6.52291637e-05 6.52291637e-05
      -3.09548377e-05 -3.09548377e-05 -3.09548377e-05 -6.67041022e-05
      -6.67041022e-05 -6.67041022e-05 -3.20692270e-05 -3.20692270e-05
      -3.20692270e-05 -6.01450702e-05 -6.01450702e-05 -6.01450702e-05
      -3.22127780e-05 -3.22127780e-05 -3.22127780e-05 -2.63825332e-05
      -2.63825332e-05 -2.63825332e-05 -4.41977718e-05 -4.41977718e-05
      -4.41977718e-05 -6.18792983e-05 -6.18792983e-05 -6.18792983e-05
      -6.12104777e-05 -6.12104777e-05 -6.12104777e-05 -2.41322141e-05
      -2.41322141e-05 -2.41322141e-05 1.87803550e-06 1.87803550e-06
      1.87803550e-06 -1.56740828e-06 -1.56740828e-06 -1.56740828e-06
      -1.57454087e-05 -1.57454087e-05 -1.57454087e-05 5.33222510e-06
      5.33222510e-06 5.33222510e-06 4.06407235e-05 4.06407235e-05
      4.06407235e-05 3.75795134e-05 3.75795134e-05 3.75795134e-05
      4.82255055e-05 4.82255055e-05 4.82255055e-05 9.92279020e-05
      9.92279020e-05 9.92279020e-05 1.34769711e-04 1.34769711e-04
      1.34769711e-04 1.51594810e-04 1.51594810e-04 1.51594810e-04
      1.14619128e-04 1.14619128e-04 1.14619128e-04 3.33684839e-05
      3.33684839e-05 3.33684839e-05 9.84547296e-06 9.84547296e-06
      9.84547296e-06 8.41671499e-06 8.41671499e-06 8.41671499e-06
      -4.37521376e-05 -4.37521376e-05 -4.37521376e-05 -7.75231310e-05
      -7.75231310e-05 -7.75231310e-05 -8.31170255e-05 -8.31170255e-05
      -8.31170255e-05 -7.18262381e-05 -7.18262381e-05 -7.18262381e-05
      -8.42071240e-05 -8.42071240e-05 -8.42071240e-05 9.11726238e-06
      9.11726238e-06 9.11726238e-06 2.72761790e-05 2.72761790e-05
      2.72761790e-05 -6.29531132e-05 -6.29531132e-05 -6.29531132e-05
      7.70737606e-05 7.70737606e-05 7.70737606e-05 9.87751901e-06
      9.87751901e-06 9.87751901e-06 -1.32605099e-04 -1.32605099e-04
      -1.32605099e-04 6.85217092e-05 6.85217092e-05 6.85217092e-05
      -3.08797134e-05 -3.08797134e-05 -3.08797134e-05 5.20445155e-06
      5.20445155e-06 5.20445155e-06 -2.29570578e-05 -2.29570578e-05
      -2.29570578e-05 -3.00956253e-05 -3.00956253e-05 -3.00956253e-05
      -3.89274392e-05 -3.89274392e-05 -3.89274392e-05 8.49764911e-06
      8.49764911e-06 8.49764911e-06 7.07977233e-05 7.07977233e-05
      7.07977233e-05 7.69764229e-05 7.69764229e-05 7.69764229e-05
      7.43623314e-05 7.43623314e-05 7.43623314e-05 5.07728764e-05
      5.07728764e-05 5.07728764e-05 6.18164122e-05 6.18164122e-05
      6.18164122e-05 6.66572596e-05 6.66572596e-05 6.66572596e-05
      4.79389746e-05 4.79389746e-05 4.79389746e-05 1.81319028e-05
      1.81319028e-05 1.81319028e-05 -7.58183160e-06 -7.58183160e-06
      -7.58183160e-06 -7.96333461e-06 -7.96333461e-06 -7.96333461e-06
      -3.31687352e-06 -3.31687352e-06 -3.31687352e-06 2.18583045e-05
      2.18583045e-05 2.18583045e-05 4.68292747e-05 4.68292747e-05
      4.68292747e-05 5.41212175e-05 5.41212175e-05 5.41212175e-05
      7.36544898e-05 7.36544898e-05 7.36544898e-05 1.16753814e-04
      1.16753814e-04 1.16753814e-04 1.39050666e-04 1.39050666e-04
      1.39050666e-04 1.30477085e-04 1.30477085e-04 1.30477085e-04
      1.21699471e-04 1.21699471e-04 1.21699471e-04 6.17856058e-05
      6.17856058e-05 6.17856058e-05 3.06138718e-05 3.06138718e-05
      3.06138718e-05 2.42765291e-05 2.42765291e-05 2.42765291e-05
      -3.56053279e-05 -3.56053279e-05 -3.56053279e-05 -6.54334872e-05
      -6.54334872e-05 -6.54334872e-05 -8.34890016e-05 -8.34890016e-05
      -8.34890016e-05 -8.83221219e-05 -8.83221219e-05 -8.83221219e-05
      -9.20400053e-05 -9.20400053e-05 -9.20400053e-05 5.45129524e-06
      5.45129524e-06 5.45129524e-06 -2.56177918e-05 -2.56177918e-05
      -2.56177918e-05 -1.34683969e-05 -1.34683969e-05 -1.34683969e-05
      6.22413136e-05 6.22413136e-05 6.22413136e-05 -4.18328164e-05
      -4.18328164e-05 -4.18328164e-05 -9.21133324e-05 -9.21133324e-05
      -9.21133324e-05 -4.84154079e-05 -4.84154079e-05 -4.84154079e-05
      -3.05859021e-06 -3.05859021e-06 -3.05859021e-06 -1.07459593e-04
      -1.07459593e-04 -1.07459593e-04 -3.75476229e-05 -3.75476229e-05
      -3.75476229e-05 3.39914482e-06 3.39914482e-06 3.39914482e-06
      -8.31959405e-05 -8.31959405e-05 -8.31959405e-05 -3.58820471e-05
      -3.58820471e-05 -3.58820471e-05 6.55053300e-05 6.55053300e-05
      6.55053300e-05 8.93422111e-05 8.93422111e-05 8.93422111e-05
      2.61788227e-05 2.61788227e-05 2.61788227e-05 -2.69040970e-06
      -2.69040970e-06 -2.69040970e-06 5.53533864e-05 5.53533864e-05
      5.53533864e-05 1.04645827e-04 1.04645827e-04 1.04645827e-04
      9.40753453e-05 9.40753453e-05 9.40753453e-05 3.22175874e-05
      3.22175874e-05 3.22175874e-05 -3.67484358e-06 -3.67484358e-06
      -3.67484358e-06 2.34212330e-05 2.34212330e-05 2.34212330e-05
      4.01469561e-06 4.01469561e-06 4.01469561e-06 -2.34461754e-06
      -2.34461754e-06 -2.34461754e-06 -2.16073877e-05 -2.16073877e-05
      -2.16073877e-05 -5.28484452e-06 -5.28484452e-06 -5.28484452e-06
      5.11045437e-05 5.11045437e-05 5.11045437e-05 1.06610103e-04
      1.06610103e-04 1.06610103e-04 1.18091120e-04 1.18091120e-04
      1.18091120e-04 9.72138223e-05 9.72138223e-05 9.72138223e-05
      1.30679662e-04 1.30679662e-04 1.30679662e-04 6.88317668e-05
      6.88317668e-05 6.88317668e-05 3.91363574e-05 3.91363574e-05
      3.91363574e-05 1.36699373e-05 1.36699373e-05 1.36699373e-05
      -4.07146108e-05 -4.07146108e-05 -4.07146108e-05 4.61619711e-05
      4.61619711e-05 4.61619711e-05 7.21539182e-05 7.21539182e-05
      7.21539182e-05 -5.91130993e-05 -5.91130993e-05 -5.91130993e-05
      -5.30121761e-05 -5.30121761e-05 -5.30121761e-05 1.81749438e-05
      1.81749438e-05 1.81749438e-05 -1.07225183e-04 -1.07225183e-04
      -1.07225183e-04 -1.08875196e-04 -1.08875196e-04 -1.08875196e-04
      -2.25718395e-05 -2.25718395e-05 -2.25718395e-05 -1.14278795e-04
      -1.14278795e-04 -1.14278795e-04 -8.22320435e-05 -8.22320435e-05
      -8.22320435e-05 -7.47191152e-05 -7.47191152e-05 -7.47191152e-05
      2.43864371e-04 2.43864371e-04 2.43864371e-04 1.07018815e-04
      1.07018815e-04 1.07018815e-04 1.51855813e-04 1.51855813e-04
      1.51855813e-04 2.83203208e-05 2.83203208e-05 2.83203208e-05
      -8.14050582e-05 -8.14050582e-05 -8.14050582e-05 -4.55014488e-05
      -4.55014488e-05 -4.55014488e-05 -3.63312233e-06 -3.63312233e-06
      -3.63312233e-06 4.12681366e-05 4.12681366e-05 4.12681366e-05
      -1.35596702e-05 -1.35596702e-05 -1.35596702e-05 -3.92393886e-05
      -3.92393886e-05 -3.92393886e-05 -2.26671455e-05 -2.26671455e-05
      -2.26671455e-05 2.18002856e-06 2.18002856e-06 2.18002856e-06
      2.04859953e-05 2.04859953e-05 2.04859953e-05 2.71526114e-05
      2.71526114e-05 2.71526114e-05 3.00908014e-05 3.00908014e-05
      3.00908014e-05 4.00971876e-05 4.00971876e-05 4.00971876e-05
      3.27848393e-05 3.27848393e-05 3.27848393e-05 9.93931280e-06
      9.93931280e-06 9.93931280e-06 -2.48664455e-05 -2.48664455e-05
      -2.48664455e-05 -1.55288981e-05 -1.55288981e-05 -1.55288981e-05
      3.01826549e-05 3.01826549e-05 3.01826549e-05 8.17399487e-05
      8.17399487e-05 8.17399487e-05 7.53968779e-05 7.53968779e-05
      7.53968779e-05 4.17789852e-05 4.17789852e-05 4.17789852e-05
      5.29724202e-05 5.29724202e-05 5.29724202e-05 5.83442124e-05
      5.83442124e-05 5.83442124e-05 4.77859758e-05 4.77859758e-05
      4.77859758e-05 3.53733703e-05 3.53733703e-05 3.53733703e-05
      3.91600111e-07 3.91600111e-07 3.91600111e-07 4.76894784e-05
      4.76894784e-05 4.76894784e-05 9.50632530e-05 9.50632530e-05
      9.50632530e-05 2.79464348e-05 2.79464348e-05 2.79464348e-05
      -2.60599554e-05 -2.60599554e-05 -2.60599554e-05 1.35648424e-05
      1.35648424e-05 1.35648424e-05 -7.33528941e-05 -7.33528941e-05
      -7.33528941e-05 -3.91724934e-05 -3.91724934e-05 -3.91724934e-05
      8.80282169e-05 8.80282169e-05 8.80282169e-05 -1.31448600e-04
      -1.31448600e-04 -1.31448600e-04 -1.71275111e-04 -1.71275111e-04
      -1.71275111e-04 -2.86382292e-05 -2.86382292e-05 -2.86382292e-05
      2.72456964e-04 2.72456964e-04 2.72456964e-04 4.72691499e-05
      4.72691499e-05 4.72691499e-05 1.01870450e-04 1.01870450e-04
      1.01870450e-04 -4.85291384e-05 -4.85291384e-05 -4.85291384e-05
      -1.19372882e-04 -1.19372882e-04 -1.19372882e-04 -6.39121863e-05
      -6.39121863e-05 -6.39121863e-05 -3.60228623e-05 -3.60228623e-05
      -3.60228623e-05 -4.94761553e-05 -4.94761553e-05 -4.94761553e-05
      -2.77633717e-05 -2.77633717e-05 -2.77633717e-05 -3.40472470e-05
      -3.40472470e-05 -3.40472470e-05 -3.41756495e-05 -3.41756495e-05
      -3.41756495e-05 -2.48739616e-05 -2.48739616e-05 -2.48739616e-05
      -1.66162354e-05 -1.66162354e-05 -1.66162354e-05 -1.96144792e-05
      -1.96144792e-05 -1.96144792e-05 -1.11374393e-05 -1.11374393e-05
      -1.11374393e-05 -1.01893083e-05 -1.01893083e-05 -1.01893083e-05
      5.33165476e-05 5.33165476e-05 5.33165476e-05 4.49411091e-05
      4.49411091e-05 4.49411091e-05 4.53851280e-05 4.53851280e-05
      4.53851280e-05 4.36763330e-05 4.36763330e-05 4.36763330e-05
      4.07000516e-05 4.07000516e-05 4.07000516e-05 5.77666106e-05
      5.77666106e-05 5.77666106e-05 5.98108236e-05 5.98108236e-05
      5.98108236e-05 4.33682326e-05 4.33682326e-05 4.33682326e-05
      4.73338878e-05 4.73338878e-05 4.73338878e-05 6.35112519e-05
      6.35112519e-05 6.35112519e-05 5.20074464e-05 5.20074464e-05
      5.20074464e-05 5.74509613e-05 5.74509613e-05 5.74509613e-05
      1.52648063e-05 1.52648063e-05 1.52648063e-05 1.23602266e-08
      1.23602266e-08 1.23602266e-08 2.99741278e-05 2.99741278e-05
      2.99741278e-05 7.73014981e-05 7.73014981e-05 7.73014981e-05
      1.31318055e-04 1.31318055e-04 1.31318055e-04 4.26937768e-05
      4.26937768e-05 4.26937768e-05 5.65874579e-05 5.65874579e-05
      5.65874579e-05 7.06249193e-05 7.06249193e-05 7.06249193e-05
      8.27505792e-05 8.27505792e-05 8.27505792e-05 -1.71884210e-04
      -1.71884210e-04 -1.71884210e-04 -2.16487359e-04 -2.16487359e-04
      -2.16487359e-04 5.79546540e-05 5.79546540e-05 5.79546540e-05
      6.57014825e-05 6.57014825e-05 6.57014825e-05 -8.51984150e-05
      -8.51984150e-05 -8.51984150e-05 -6.15122599e-06 -6.15122599e-06
      -6.15122599e-06 -5.14853782e-05 -5.14853782e-05 -5.14853782e-05
      -9.76937645e-06 -9.76937645e-06 -9.76937645e-06 -4.73856962e-05
      -4.73856962e-05 -4.73856962e-05 -8.71211232e-05 -8.71211232e-05
      -8.71211232e-05 -3.64910338e-05 -3.64910338e-05 -3.64910338e-05
      -3.67888570e-05 -3.67888570e-05 -3.67888570e-05 -6.64967811e-05
      -6.64967811e-05 -6.64967811e-05 -8.64150934e-05 -8.64150934e-05
      -8.64150934e-05 -4.47576131e-05 -4.47576131e-05 -4.47576131e-05
      -1.90700448e-05 -1.90700448e-05 -1.90700448e-05 -3.80351921e-05
      -3.80351921e-05 -3.80351921e-05 -2.75530547e-05 -2.75530547e-05
      -2.75530547e-05 5.32432114e-06 5.32432114e-06 5.32432114e-06
      -1.34606444e-05 -1.34606444e-05 -1.34606444e-05 1.84296823e-05
      1.84296823e-05 1.84296823e-05 7.11008761e-05 7.11008761e-05
      7.11008761e-05 8.69788782e-05 8.69788782e-05 8.69788782e-05
      5.49804863e-05 5.49804863e-05 5.49804863e-05 4.53291286e-05
      4.53291286e-05 4.53291286e-05 2.76850515e-05 2.76850515e-05
      2.76850515e-05 -3.10022392e-06 -3.10022392e-06 -3.10022392e-06
      3.31973861e-05 3.31973861e-05 3.31973861e-05 5.48361568e-05
      5.48361568e-05 5.48361568e-05 4.70284176e-05 4.70284176e-05
      4.70284176e-05 4.81266507e-05 4.81266507e-05 4.81266507e-05
      1.67311428e-05 1.67311428e-05 1.67311428e-05 3.32063610e-05
      3.32063610e-05 3.32063610e-05 4.66471465e-05 4.66471465e-05
      4.66471465e-05 6.53713578e-05 6.53713578e-05 6.53713578e-05
      1.12789909e-04 1.12789909e-04 1.12789909e-04 2.97256647e-05
      2.97256647e-05 2.97256647e-05 -1.65094953e-05 -1.65094953e-05
      -1.65094953e-05 8.32671212e-05 8.32671212e-05 8.32671212e-05
      1.03292747e-04 1.03292747e-04 1.03292747e-04 3.17691374e-05
      3.17691374e-05 3.17691374e-05 6.86859421e-05 6.86859421e-05
      6.86859421e-05 2.64631148e-04 2.64631148e-04 2.64631148e-04
      -6.16160542e-05 -6.16160542e-05 -6.16160542e-05 -7.50110921e-05
      -7.50110921e-05 -7.50110921e-05 5.16072141e-05 5.16072141e-05
      5.16072141e-05 5.63697395e-05 5.63697395e-05 5.63697395e-05
      4.12329973e-05 4.12329973e-05 4.12329973e-05 -1.12408861e-05
      -1.12408861e-05 -1.12408861e-05 -3.68101646e-05 -3.68101646e-05
      -3.68101646e-05 4.56934958e-06 4.56934958e-06 4.56934958e-06
      -6.54975224e-07 -6.54975224e-07 -6.54975224e-07 -3.99615419e-05
      -3.99615419e-05 -3.99615419e-05 -9.37817458e-05 -9.37817458e-05
      -9.37817458e-05 -8.98478393e-05 -8.98478393e-05 -8.98478393e-05
      -6.91949754e-05 -6.91949754e-05 -6.91949754e-05 -5.50466139e-05
      -5.50466139e-05 -5.50466139e-05 -3.32812087e-05 -3.32812087e-05
      -3.32812087e-05 -9.49350306e-06 -9.49350306e-06 -9.49350306e-06
      -4.23030400e-07 -4.23030400e-07 -4.23030400e-07 5.69840097e-07
      5.69840097e-07 5.69840097e-07 3.87381624e-05 3.87381624e-05
      3.87381624e-05 7.20161042e-05 7.20161042e-05 7.20161042e-05
      5.72030476e-05 5.72030476e-05 5.72030476e-05 3.04080459e-05
      3.04080459e-05 3.04080459e-05 -3.76944990e-06 -3.76944990e-06
      -3.76944990e-06 -3.56102719e-05 -3.56102719e-05 -3.56102719e-05
      -6.80766170e-05 -6.80766170e-05 -6.80766170e-05 -4.15585009e-06
      -4.15585009e-06 -4.15585009e-06 -8.12391227e-06 -8.12391227e-06
      -8.12391227e-06 2.15508908e-06 2.15508908e-06 2.15508908e-06
      6.77311891e-06 6.77311891e-06 6.77311891e-06 1.38975774e-05
      1.38975774e-05 1.38975774e-05 7.81740619e-06 7.81740619e-06
      7.81740619e-06 4.24319987e-05 4.24319987e-05 4.24319987e-05
      6.72250235e-06 6.72250235e-06 6.72250235e-06 -4.53768698e-05
      -4.53768698e-05 -4.53768698e-05 -8.31695288e-05 -8.31695288e-05
      -8.31695288e-05 3.16406986e-05 3.16406986e-05 3.16406986e-05
      -2.31887461e-05 -2.31887461e-05 -2.31887461e-05 8.99722581e-05
      8.99722581e-05 8.99722581e-05 1.56760550e-04 1.56760550e-04
      1.56760550e-04 1.89122264e-04 1.89122264e-04 1.89122264e-04
      -1.12574535e-05 -1.12574535e-05 -1.12574535e-05 -5.59298205e-05
      -5.59298205e-05 -5.59298205e-05 -4.20118413e-05 -4.20118413e-05
      -4.20118413e-05 -1.92862371e-05 -1.92862371e-05 -1.92862371e-05
      1.16186056e-05 1.16186056e-05 1.16186056e-05 -6.04612660e-06
      -6.04612660e-06 -6.04612660e-06 3.34818736e-07 3.34818736e-07
      3.34818736e-07 -3.36756675e-05 -3.36756675e-05 -3.36756675e-05
      -3.96899413e-05 -3.96899413e-05 -3.96899413e-05 -4.45396508e-05
      -4.45396508e-05 -4.45396508e-05 -9.75737348e-05 -9.75737348e-05
      -9.75737348e-05 -1.40499877e-04 -1.40499877e-04 -1.40499877e-04
      -1.39311232e-04 -1.39311232e-04 -1.39311232e-04 -7.78025351e-05
      -7.78025351e-05 -7.78025351e-05 -2.00563973e-05 -2.00563973e-05
      -2.00563973e-05 2.49324366e-05 2.49324366e-05 2.49324366e-05
      1.39574822e-05 1.39574822e-05 1.39574822e-05 6.12910981e-06
      6.12910981e-06 6.12910981e-06 2.51596339e-05 2.51596339e-05
      2.51596339e-05 4.54386245e-05 4.54386245e-05 4.54386245e-05
      4.27919549e-05 4.27919549e-05 4.27919549e-05 2.30010082e-05
      2.30010082e-05 2.30010082e-05 -4.00522424e-07 -4.00522424e-07
      -4.00522424e-07 -2.31448230e-05 -2.31448230e-05 -2.31448230e-05
      -6.41341830e-05 -6.41341830e-05 -6.41341830e-05 -4.62120624e-05
      -4.62120624e-05 -4.62120624e-05 -5.03693300e-05 -5.03693300e-05
      -5.03693300e-05 -4.04918901e-05 -4.04918901e-05 -4.04918901e-05
      -5.94444282e-05 -5.94444282e-05 -5.94444282e-05 -5.19769892e-05
      -5.19769892e-05 -5.19769892e-05 -2.30339119e-05 -2.30339119e-05
      -2.30339119e-05 -9.75171497e-06 -9.75171497e-06 -9.75171497e-06
      -1.88375761e-05 -1.88375761e-05 -1.88375761e-05 -8.10241108e-05
      -8.10241108e-05 -8.10241108e-05 -5.86919632e-05 -5.86919632e-05
      -5.86919632e-05 -2.38336343e-05 -2.38336343e-05 -2.38336343e-05
      -7.65564691e-05 -7.65564691e-05 -7.65564691e-05 4.30410619e-05
      4.30410619e-05 4.30410619e-05 2.49220411e-05 2.49220411e-05
      2.49220411e-05 1.54631052e-04 1.54631052e-04 1.54631052e-04
      -2.24033120e-05 -2.24033120e-05 -2.24033120e-05 -4.18749660e-05
      -4.18749660e-05 -4.18749660e-05 -1.71503823e-04 -1.71503823e-04
      -1.71503823e-04 -1.63350560e-04 -1.63350560e-04 -1.63350560e-04
      -9.48211455e-05 -9.48211455e-05 -9.48211455e-05 -3.01258424e-05
      -3.01258424e-05 -3.01258424e-05 -5.70109696e-05 -5.70109696e-05
      -5.70109696e-05 -7.59096874e-05 -7.59096874e-05 -7.59096874e-05
      -1.15724994e-04 -1.15724994e-04 -1.15724994e-04 -8.64240428e-05
      -8.64240428e-05 -8.64240428e-05 -5.24954230e-05 -5.24954230e-05
      -5.24954230e-05 -1.03055499e-04 -1.03055499e-04 -1.03055499e-04
      -1.23926045e-04 -1.23926045e-04 -1.23926045e-04 -8.08471668e-05
      -8.08471668e-05 -8.08471668e-05 5.35847960e-07 5.35847960e-07
      5.35847960e-07 3.83531260e-05 3.83531260e-05 3.83531260e-05
      2.26415868e-05 2.26415868e-05 2.26415868e-05 6.71029848e-05
      6.71029848e-05 6.71029848e-05 8.52539379e-05 8.52539379e-05
      8.52539379e-05 4.55106856e-05 4.55106856e-05 4.55106856e-05
      2.66475599e-05 2.66475599e-05 2.66475599e-05 1.62514370e-05
      1.62514370e-05 1.62514370e-05 -1.84303644e-05 -1.84303644e-05
      -1.84303644e-05 -5.83820365e-05 -5.83820365e-05 -5.83820365e-05
      -9.14193006e-05 -9.14193006e-05 -9.14193006e-05 -1.03939012e-04
      -1.03939012e-04 -1.03939012e-04 -1.21977508e-04 -1.21977508e-04
      -1.21977508e-04 -1.10831053e-04 -1.10831053e-04 -1.10831053e-04
      -1.01856851e-04 -1.01856851e-04 -1.01856851e-04 -8.49491189e-05
      -8.49491189e-05 -8.49491189e-05 -9.15094715e-05 -9.15094715e-05
      -9.15094715e-05 -7.64713041e-05 -7.64713041e-05 -7.64713041e-05
      -7.71295745e-05 -7.71295745e-05 -7.71295745e-05 -1.07898435e-04
      -1.07898435e-04 -1.07898435e-04 -1.53320769e-04 -1.53320769e-04
      -1.53320769e-04 -1.87573096e-04 -1.87573096e-04 -1.87573096e-04
      1.84691442e-06 1.84691442e-06 1.84691442e-06 7.71245104e-05
      7.71245104e-05 7.71245104e-05 1.48435560e-04 1.48435560e-04
      1.48435560e-04 2.12639585e-04 2.12639585e-04 2.12639585e-04
      7.55896544e-05 7.55896544e-05 7.55896544e-05 3.32352938e-05
      3.32352938e-05 3.32352938e-05 -1.06580548e-04 -1.06580548e-04
      -1.06580548e-04 -1.41220778e-04 -1.41220778e-04 -1.41220778e-04
      3.12211778e-05 3.12211778e-05 3.12211778e-05 9.73094939e-06
      9.73094939e-06 9.73094939e-06 -5.49197794e-05 -5.49197794e-05
      -5.49197794e-05 -9.07517751e-05 -9.07517751e-05 -9.07517751e-05
      -1.17330121e-04 -1.17330121e-04 -1.17330121e-04 -1.76278278e-04
      -1.76278278e-04 -1.76278278e-04 -1.68980638e-04 -1.68980638e-04
      -1.68980638e-04 -1.38802818e-04 -1.38802818e-04 -1.38802818e-04
      -1.17674746e-04 -1.17674746e-04 -1.17674746e-04 -3.30525181e-05
      -3.30525181e-05 -3.30525181e-05 5.52655692e-05 5.52655692e-05
      5.52655692e-05 8.38796623e-05 8.38796623e-05 8.38796623e-05
      8.28285629e-05 8.28285629e-05 8.28285629e-05 1.09491077e-04
      1.09491077e-04 1.09491077e-04 1.10004512e-04 1.10004512e-04
      1.10004512e-04 7.18715164e-05 7.18715164e-05 7.18715164e-05
      5.05658791e-05 5.05658791e-05 5.05658791e-05 5.68982214e-05
      5.68982214e-05 5.68982214e-05 1.00779280e-05 1.00779280e-05
      1.00779280e-05 -4.77992835e-05 -4.77992835e-05 -4.77992835e-05
      -9.73404312e-05 -9.73404312e-05 -9.73404312e-05 -1.01362552e-04
      -1.01362552e-04 -1.01362552e-04 -1.24732309e-04 -1.24732309e-04
      -1.24732309e-04 -1.02932900e-04 -1.02932900e-04 -1.02932900e-04
      -1.81914311e-05 -1.81914311e-05 -1.81914311e-05 2.30780752e-05
      2.30780752e-05 2.30780752e-05 -2.07057619e-05 -2.07057619e-05
      -2.07057619e-05 -5.86960196e-05 -5.86960196e-05 -5.86960196e-05
      -8.70821823e-05 -8.70821823e-05 -8.70821823e-05 -9.95301089e-05
      -9.95301089e-05 -9.95301089e-05 -2.44361981e-05 -2.44361981e-05
      -2.44361981e-05 -5.63969188e-05 -5.63969188e-05 -5.63969188e-05
      -6.14976088e-05 -6.14976088e-05 -6.14976088e-05 -7.02798498e-05
      -7.02798498e-05 -7.02798498e-05 7.72909698e-05 7.72909698e-05
      7.72909698e-05 1.75504218e-04 1.75504218e-04 1.75504218e-04
      3.24102803e-05 3.24102803e-05 3.24102803e-05 3.21512780e-05
      3.21512780e-05 3.21512780e-05 -9.30102397e-05 -9.30102397e-05
      -9.30102397e-05 -4.57485512e-05 -4.57485512e-05 -4.57485512e-05
      -2.41990347e-05 -2.41990347e-05 -2.41990347e-05 -5.55872939e-05
      -5.55872939e-05 -5.55872939e-05 -1.05303130e-04 -1.05303130e-04
      -1.05303130e-04 -6.68470966e-05 -6.68470966e-05 -6.68470966e-05
      -8.40635767e-05 -8.40635767e-05 -8.40635767e-05 -1.56717331e-04
      -1.56717331e-04 -1.56717331e-04 -1.64641300e-04 -1.64641300e-04
      -1.64641300e-04 -1.27643478e-04 -1.27643478e-04 -1.27643478e-04
      -6.38326019e-05 -6.38326019e-05 -6.38326019e-05 -7.92301216e-06
      -7.92301216e-06 -7.92301216e-06 3.59947044e-05 3.59947044e-05
      3.59947044e-05 4.28369822e-05 4.28369822e-05 4.28369822e-05
      9.50409158e-05 9.50409158e-05 9.50409158e-05 1.08519627e-04
      1.08519627e-04 1.08519627e-04 1.14670562e-04 1.14670562e-04
      1.14670562e-04 9.64570281e-05 9.64570281e-05 9.64570281e-05
      8.53132733e-05 8.53132733e-05 8.53132733e-05 8.54104219e-05
      8.54104219e-05 8.54104219e-05 3.22524465e-05 3.22524465e-05
      3.22524465e-05 -2.01396633e-05 -2.01396633e-05 -2.01396633e-05
      -8.45923423e-05 -8.45923423e-05 -8.45923423e-05 -7.13913978e-05
      -7.13913978e-05 -7.13913978e-05 -1.02845246e-04 -1.02845246e-04
      -1.02845246e-04 -1.36147341e-04 -1.36147341e-04 -1.36147341e-04
      -7.80131086e-05 -7.80131086e-05 -7.80131086e-05 -5.55894730e-05
      -5.55894730e-05 -5.55894730e-05 -7.27799270e-05 -7.27799270e-05
      -7.27799270e-05 -7.02900361e-05 -7.02900361e-05 -7.02900361e-05
      -8.14382511e-05 -8.14382511e-05 -8.14382511e-05 -1.78580827e-04
      -1.78580827e-04 -1.78580827e-04 -1.71912543e-04 -1.71912543e-04
      -1.71912543e-04 -2.25918666e-05 -2.25918666e-05 -2.25918666e-05
      6.81982274e-05 6.81982274e-05 6.81982274e-05 -7.69283724e-05
      -7.69283724e-05 -7.69283724e-05 3.18832281e-05 3.18832281e-05
      3.18832281e-05 1.30635977e-04 1.30635977e-04 1.30635977e-04
      1.56442678e-04 1.56442678e-04 1.56442678e-04 1.40861506e-04
      1.40861506e-04 1.40861506e-04 -3.56132405e-05 -3.56132405e-05
      -3.56132405e-05 6.76807322e-05 6.76807322e-05 6.76807322e-05
      -3.81759564e-05 -3.81759564e-05 -3.81759564e-05 -5.78571926e-05
      -5.78571926e-05 -5.78571926e-05 -6.98759759e-05 -6.98759759e-05
      -6.98759759e-05 -3.12522752e-05 -3.12522752e-05 -3.12522752e-05
      -3.78605473e-05 -3.78605473e-05 -3.78605473e-05 -6.97836367e-05
      -6.97836367e-05 -6.97836367e-05 -6.85114428e-05 -6.85114428e-05
      -6.85114428e-05 -5.66974049e-05 -5.66974049e-05 -5.66974049e-05
      -2.75231996e-05 -2.75231996e-05 -2.75231996e-05 2.18336299e-06
      2.18336299e-06 2.18336299e-06 4.86862809e-05 4.86862809e-05
      4.86862809e-05 7.13293848e-05 7.13293848e-05 7.13293848e-05
      9.58653618e-05 9.58653618e-05 9.58653618e-05 1.08222943e-04
      1.08222943e-04 1.08222943e-04 1.21992831e-04 1.21992831e-04
      1.21992831e-04 1.15194307e-04 1.15194307e-04 1.15194307e-04
      9.38951998e-05 9.38951998e-05 9.38951998e-05 8.93911856e-05
      8.93911856e-05 8.93911856e-05 3.98914381e-05 3.98914381e-05
      3.98914381e-05 -3.86155762e-06 -3.86155762e-06 -3.86155762e-06
      2.39054698e-05 2.39054698e-05 2.39054698e-05 9.28393831e-07
      9.28393831e-07 9.28393831e-07 -5.02342155e-05 -5.02342155e-05
      -5.02342155e-05 -1.01629274e-04 -1.01629274e-04 -1.01629274e-04
      -8.86034177e-05 -8.86034177e-05 -8.86034177e-05 -8.60820364e-05
      -8.60820364e-05 -8.60820364e-05 -9.01316162e-05 -9.01316162e-05
      -9.01316162e-05 -7.21759352e-05 -7.21759352e-05 -7.21759352e-05
      -2.57590455e-05 -2.57590455e-05 -2.57590455e-05 -5.05287135e-05
      -5.05287135e-05 -5.05287135e-05 -1.10904773e-04 -1.10904773e-04
      -1.10904773e-04 -2.45061110e-05 -2.45061110e-05 -2.45061110e-05
      4.10600114e-05 4.10600114e-05 4.10600114e-05 2.87018484e-05
      2.87018484e-05 2.87018484e-05 2.75971597e-05 2.75971597e-05
      2.75971597e-05 4.46161685e-05 4.46161685e-05 4.46161685e-05
      2.45983596e-04 2.45983596e-04 2.45983596e-04 9.09998125e-05
      9.09998125e-05 9.09998125e-05 6.65000334e-05 6.65000334e-05
      6.65000334e-05 1.29144275e-04 1.29144275e-04 1.29144275e-04
      1.10531346e-05 1.10531346e-05 1.10531346e-05 -4.45334445e-05
      -4.45334445e-05 -4.45334445e-05 2.15492423e-06 2.15492423e-06
      2.15492423e-06 -3.65237029e-05 -3.65237029e-05 -3.65237029e-05
      -5.12581209e-05 -5.12581209e-05 -5.12581209e-05 -5.66878552e-05
      -5.66878552e-05 -5.66878552e-05 -7.54078865e-05 -7.54078865e-05
      -7.54078865e-05 -7.21686520e-05 -7.21686520e-05 -7.21686520e-05
      -3.25960063e-05 -3.25960063e-05 -3.25960063e-05 4.89462627e-06
      4.89462627e-06 4.89462627e-06 4.43597528e-05 4.43597528e-05
      4.43597528e-05 6.96980642e-05 6.96980642e-05 6.96980642e-05
      1.24898434e-04 1.24898434e-04 1.24898434e-04 1.33244350e-04
      1.33244350e-04 1.33244350e-04 1.47782004e-04 1.47782004e-04
      1.47782004e-04 1.39289230e-04 1.39289230e-04 1.39289230e-04
      1.08406748e-04 1.08406748e-04 1.08406748e-04 9.51061083e-05
      9.51061083e-05 9.51061083e-05 4.61761701e-05 4.61761701e-05
      4.61761701e-05 5.09072697e-06 5.09072697e-06 5.09072697e-06
      -1.05572226e-05 -1.05572226e-05 -1.05572226e-05 -6.20295032e-05
      -6.20295032e-05 -6.20295032e-05 -8.64485482e-05 -8.64485482e-05
      -8.64485482e-05 -8.14261075e-05 -8.14261075e-05 -8.14261075e-05
      -6.19918210e-05 -6.19918210e-05 -6.19918210e-05 -3.77093165e-05
      -3.77093165e-05 -3.77093165e-05 -2.29739398e-05 -2.29739398e-05
      -2.29739398e-05 -5.23088966e-06 -5.23088966e-06 -5.23088966e-06
      -3.00843785e-05 -3.00843785e-05 -3.00843785e-05 -5.90435775e-05
      -5.90435775e-05 -5.90435775e-05 -1.28949963e-04 -1.28949963e-04
      -1.28949963e-04 -2.09017016e-04 -2.09017016e-04 -2.09017016e-04
      -5.85958296e-05 -5.85958296e-05 -5.85958296e-05 6.95247436e-05
      6.95247436e-05 6.95247436e-05 9.51914917e-05 9.51914917e-05
      9.51914917e-05 1.74142624e-04 1.74142624e-04 1.74142624e-04
      7.63122953e-05 7.63122953e-05 7.63122953e-05 -2.35534608e-05
      -2.35534608e-05 -2.35534608e-05 8.61535082e-05 8.61535082e-05
      8.61535082e-05 1.40628676e-04 1.40628676e-04 1.40628676e-04
      1.11663299e-04 1.11663299e-04 1.11663299e-04 2.73772912e-05
      2.73772912e-05 2.73772912e-05 2.59446551e-06 2.59446551e-06
      2.59446551e-06 -4.30211876e-05 -4.30211876e-05 -4.30211876e-05
      -4.31163025e-05 -4.31163025e-05 -4.31163025e-05 -4.44866600e-05
      -4.44866600e-05 -4.44866600e-05 -7.39511233e-05 -7.39511233e-05
      -7.39511233e-05 -6.43223102e-05 -6.43223102e-05 -6.43223102e-05
      -2.37499717e-06 -2.37499717e-06 -2.37499717e-06 5.69843833e-05
      5.69843833e-05 5.69843833e-05 1.07860338e-04 1.07860338e-04
      1.07860338e-04 1.36074392e-04 1.36074392e-04 1.36074392e-04
      1.50526655e-04 1.50526655e-04 1.50526655e-04 1.43167053e-04
      1.43167053e-04 1.43167053e-04 1.41926314e-04 1.41926314e-04
      1.41926314e-04 1.33156107e-04 1.33156107e-04 1.33156107e-04
      1.10173292e-04 1.10173292e-04 1.10173292e-04 9.95701776e-05
      9.95701776e-05 9.95701776e-05 6.62827661e-05 6.62827661e-05
      6.62827661e-05 2.93840785e-05 2.93840785e-05 2.93840785e-05
      -2.89781619e-05 -2.89781619e-05 -2.89781619e-05 -5.46200499e-05
      -5.46200499e-05 -5.46200499e-05 -8.17375694e-05 -8.17375694e-05
      -8.17375694e-05 -8.97177815e-05 -8.97177815e-05 -8.97177815e-05
      -8.79403451e-05 -8.79403451e-05 -8.79403451e-05 -6.64518593e-05
      -6.64518593e-05 -6.64518593e-05 -7.38743038e-05 -7.38743038e-05
      -7.38743038e-05 -6.52233357e-05 -6.52233357e-05 -6.52233357e-05
      -1.09980436e-04 -1.09980436e-04 -1.09980436e-04 -1.20489865e-04
      -1.20489865e-04 -1.20489865e-04 -4.62524622e-05 -4.62524622e-05
      -4.62524622e-05 -2.44275598e-05 -2.44275598e-05 -2.44275598e-05
      2.58832897e-05 2.58832897e-05 2.58832897e-05 3.29837349e-05
      3.29837349e-05 3.29837349e-05 7.04286795e-05 7.04286795e-05
      7.04286795e-05 2.16352695e-04 2.16352695e-04 2.16352695e-04
      -2.24833548e-05 -2.24833548e-05 -2.24833548e-05 -1.32293804e-04
      -1.32293804e-04 -1.32293804e-04 -2.36627311e-05 -2.36627311e-05
      -2.36627311e-05 1.30747518e-04 1.30747518e-04 1.30747518e-04
      1.13381844e-04 1.13381844e-04 1.13381844e-04 5.65587907e-05
      5.65587907e-05 5.65587907e-05 -2.88278752e-05 -2.88278752e-05
      -2.88278752e-05 6.59912939e-06 6.59912939e-06 6.59912939e-06
      -2.18876321e-05 -2.18876321e-05 -2.18876321e-05 -3.35150180e-05
      -3.35150180e-05 -3.35150180e-05 -8.04695737e-05 -8.04695737e-05
      -8.04695737e-05 -6.29795250e-05 -6.29795250e-05 -6.29795250e-05
      2.09228219e-05 2.09228219e-05 2.09228219e-05 8.09151097e-05
      8.09151097e-05 8.09151097e-05 1.49840591e-04 1.49840591e-04
      1.49840591e-04 1.97810878e-04 1.97810878e-04 1.97810878e-04
      1.36050381e-04 1.36050381e-04 1.36050381e-04 1.38420161e-04
      1.38420161e-04 1.38420161e-04 1.47817816e-04 1.47817816e-04
      1.47817816e-04 1.32475441e-04 1.32475441e-04 1.32475441e-04
      1.04044382e-04 1.04044382e-04 1.04044382e-04 8.68484931e-05
      8.68484931e-05 8.68484931e-05 6.60430815e-05 6.60430815e-05
      6.60430815e-05 5.30069956e-05 5.30069956e-05 5.30069956e-05
      1.95428984e-05 1.95428984e-05 1.95428984e-05 -1.33561898e-05
      -1.33561898e-05 -1.33561898e-05 -5.73812067e-05 -5.73812067e-05
      -5.73812067e-05 -7.81974086e-05 -7.81974086e-05 -7.81974086e-05
      -5.98101578e-05 -5.98101578e-05 -5.98101578e-05 -4.36329028e-05
      -4.36329028e-05 -4.36329028e-05 -6.47918278e-05 -6.47918278e-05
      -6.47918278e-05 -6.38155107e-05 -6.38155107e-05 -6.38155107e-05
      -9.18120058e-05 -9.18120058e-05 -9.18120058e-05 -8.74264442e-05
      -8.74264442e-05 -8.74264442e-05 -7.39857860e-05 -7.39857860e-05
      -7.39857860e-05 1.76618851e-05 1.76618851e-05 1.76618851e-05
      1.38528689e-04 1.38528689e-04 1.38528689e-04 9.53994750e-05
      9.53994750e-05 9.53994750e-05 7.53098720e-05 7.53098720e-05
      7.53098720e-05 2.44029739e-04 2.44029739e-04 2.44029739e-04
      9.31700342e-05 9.31700342e-05 9.31700342e-05 1.79545405e-05
      1.79545405e-05 1.79545405e-05 1.07704676e-04 1.07704676e-04
      1.07704676e-04 1.37508730e-04 1.37508730e-04 1.37508730e-04
      8.07304532e-05 8.07304532e-05 8.07304532e-05 4.68926701e-05
      4.68926701e-05 4.68926701e-05 2.52251198e-06 2.52251198e-06
      2.52251198e-06 3.65782871e-05 3.65782871e-05 3.65782871e-05
      3.96799078e-06 3.96799078e-06 3.96799078e-06 -2.11373608e-05
      -2.11373608e-05 -2.11373608e-05 -7.44882636e-05 -7.44882636e-05
      -7.44882636e-05 -6.12764998e-05 -6.12764998e-05 -6.12764998e-05
      3.30709804e-06 3.30709804e-06 3.30709804e-06 1.25412080e-05
      1.25412080e-05 1.25412080e-05 6.02176224e-05 6.02176224e-05
      6.02176224e-05 9.96109084e-05 9.96109084e-05 9.96109084e-05
      1.09829918e-04 1.09829918e-04 1.09829918e-04 1.21105841e-04
      1.21105841e-04 1.21105841e-04 1.26615370e-04 1.26615370e-04
      1.26615370e-04 1.12433008e-04 1.12433008e-04 1.12433008e-04
      8.80855951e-05 8.80855951e-05 8.80855951e-05 7.51856933e-05
      7.51856933e-05 7.51856933e-05 5.38175191e-05 5.38175191e-05
      5.38175191e-05 3.77458382e-05 3.77458382e-05 3.77458382e-05
      1.89706352e-05 1.89706352e-05 1.89706352e-05 -6.07063612e-06
      -6.07063612e-06 -6.07063612e-06 -1.62938959e-05 -1.62938959e-05
      -1.62938959e-05 -3.79290504e-05 -3.79290504e-05 -3.79290504e-05
      -5.01625800e-05 -5.01625800e-05 -5.01625800e-05 -5.98537699e-05
      -5.98537699e-05 -5.98537699e-05 -6.51556984e-05 -6.51556984e-05
      -6.51556984e-05 -5.04751297e-05 -5.04751297e-05 -5.04751297e-05
      -4.00063363e-05 -4.00063363e-05 -4.00063363e-05 -4.75729248e-05
      -4.75729248e-05 -4.75729248e-05 -1.43891477e-04 -1.43891477e-04
      -1.43891477e-04 -1.61554359e-04 -1.61554359e-04 -1.61554359e-04
      8.44398237e-05 8.44398237e-05 8.44398237e-05 9.13812546e-05
      9.13812546e-05 9.13812546e-05 5.62859750e-05 5.62859750e-05
      5.62859750e-05 7.14154594e-05 7.14154594e-05 7.14154594e-05
      1.06194653e-04 1.06194653e-04 1.06194653e-04 -2.63032998e-05
      -2.63032998e-05 -2.63032998e-05 -1.02092254e-05 -1.02092254e-05
      -1.02092254e-05 1.26985717e-04 1.26985717e-04 1.26985717e-04
      7.26506332e-05 7.26506332e-05 7.26506332e-05 1.00771858e-05
      1.00771858e-05 1.00771858e-05 5.59166838e-05 5.59166838e-05
      5.59166838e-05 7.56119562e-07 7.56119562e-07 7.56119562e-07
      -2.03026520e-05 -2.03026520e-05 -2.03026520e-05 -3.59228397e-05
      -3.59228397e-05 -3.59228397e-05 -6.04775778e-05 -6.04775778e-05
      -6.04775778e-05 -6.10961433e-05 -6.10961433e-05 -6.10961433e-05
      -4.58958712e-05 -4.58958712e-05 -4.58958712e-05 -1.74468059e-05
      -1.74468059e-05 -1.74468059e-05 1.59605206e-05 1.59605206e-05
      1.59605206e-05 4.63080978e-05 4.63080978e-05 4.63080978e-05
      5.70191587e-05 5.70191587e-05 5.70191587e-05 7.50785621e-05
      7.50785621e-05 7.50785621e-05 9.38092417e-05 9.38092417e-05
      9.38092417e-05 1.00635625e-04 1.00635625e-04 1.00635625e-04
      9.86922096e-05 9.86922096e-05 9.86922096e-05 9.09628070e-05
      9.09628070e-05 9.09628070e-05 6.78488432e-05 6.78488432e-05
      6.78488432e-05 2.29980578e-05 2.29980578e-05 2.29980578e-05
      1.20639243e-05 1.20639243e-05 1.20639243e-05 1.69917876e-05
      1.69917876e-05 1.69917876e-05 2.50321991e-05 2.50321991e-05
      2.50321991e-05 1.45033555e-05 1.45033555e-05 1.45033555e-05
      -1.03382608e-05 -1.03382608e-05 -1.03382608e-05 -2.43347677e-05
      -2.43347677e-05 -2.43347677e-05 -2.95349000e-05 -2.95349000e-05
      -2.95349000e-05 -2.84075177e-05 -2.84075177e-05 -2.84075177e-05
      -5.18977722e-05 -5.18977722e-05 -5.18977722e-05 -2.60495653e-05
      -2.60495653e-05 -2.60495653e-05 -5.47988020e-05 -5.47988020e-05
      -5.47988020e-05 -4.25829130e-05 -4.25829130e-05 -4.25829130e-05
      1.25929597e-04 1.25929597e-04 1.25929597e-04 9.17824946e-05
      9.17824946e-05 9.17824946e-05 8.60289874e-05 8.60289874e-05
      8.60289874e-05 6.75936753e-05 6.75936753e-05 6.75936753e-05
      1.66759564e-04 1.66759564e-04 1.66759564e-04 9.99408658e-05
      9.99408658e-05 9.99408658e-05 1.92499956e-05 1.92499956e-05
      1.92499956e-05 1.42597346e-04 1.42597346e-04 1.42597346e-04
      1.08852750e-04 1.08852750e-04 1.08852750e-04 5.35549334e-05
      5.35549334e-05 5.35549334e-05 2.26851298e-05 2.26851298e-05
      2.26851298e-05 -7.88631951e-06 -7.88631951e-06 -7.88631951e-06
      5.18240495e-06 5.18240495e-06 5.18240495e-06 2.27834789e-06
      2.27834789e-06 2.27834789e-06 -2.61993068e-06 -2.61993068e-06
      -2.61993068e-06 -1.00652569e-05 -1.00652569e-05 -1.00652569e-05
      -1.36142744e-05 -1.36142744e-05 -1.36142744e-05 -1.57811792e-06
      -1.57811792e-06 -1.57811792e-06 1.18641701e-05 1.18641701e-05
      1.18641701e-05 3.81137361e-05 3.81137361e-05 3.81137361e-05
      2.13218336e-05 2.13218336e-05 2.13218336e-05 4.18021409e-05
      4.18021409e-05 4.18021409e-05 6.55516051e-05 6.55516051e-05
      6.55516051e-05 8.03159419e-05 8.03159419e-05 8.03159419e-05
      8.13575025e-05 8.13575025e-05 8.13575025e-05 8.13111983e-05
      8.13111983e-05 8.13111983e-05 5.20538015e-05 5.20538015e-05
      5.20538015e-05 1.92141342e-05 1.92141342e-05 1.92141342e-05
      3.27519156e-05 3.27519156e-05 3.27519156e-05 1.93958876e-05
      1.93958876e-05 1.93958876e-05 1.94551922e-05 1.94551922e-05
      1.94551922e-05 1.69775103e-05 1.69775103e-05 1.69775103e-05
      5.37447295e-06 5.37447295e-06 5.37447295e-06 -1.77832499e-05
      -1.77832499e-05 -1.77832499e-05 -2.73070473e-05 -2.73070473e-05
      -2.73070473e-05 -2.85932438e-05 -2.85932438e-05 -2.85932438e-05
      -3.13850833e-05 -3.13850833e-05 -3.13850833e-05 6.44010943e-05
      6.44010943e-05 6.44010943e-05 1.24404678e-05 1.24404678e-05
      1.24404678e-05 -1.10885067e-05 -1.10885067e-05 -1.10885067e-05
      -3.27137277e-05 -3.27137277e-05 -3.27137277e-05 -5.71693854e-05
      -5.71693854e-05 -5.71693854e-05 3.87570617e-05 3.87570617e-05
      3.87570617e-05 1.51520711e-04 1.51520711e-04 1.51520711e-04
      1.03530132e-04 1.03530132e-04 1.03530132e-04 -2.99857529e-05
      -2.99857529e-05 -2.99857529e-05 -3.70582165e-05 -3.70582165e-05
      -3.70582165e-05 4.64897093e-05 4.64897093e-05 4.64897093e-05
      8.46811963e-05 8.46811963e-05 8.46811963e-05 6.72743190e-05
      6.72743190e-05 6.72743190e-05 3.13914788e-05 3.13914788e-05
      3.13914788e-05 -1.26832747e-05 -1.26832747e-05 -1.26832747e-05
      6.07218851e-07 6.07218851e-07 6.07218851e-07 1.21250059e-05
      1.21250059e-05 1.21250059e-05 1.93149572e-06 1.93149572e-06
      1.93149572e-06 -8.22275979e-06 -8.22275979e-06 -8.22275979e-06
      6.64019990e-06 6.64019990e-06 6.64019990e-06 2.68926378e-05
      2.68926378e-05 2.68926378e-05 2.36658125e-05 2.36658125e-05
      2.36658125e-05 2.86800187e-05 2.86800187e-05 2.86800187e-05
      9.15522651e-06 9.15522651e-06 9.15522651e-06 3.26616791e-05
      3.26616791e-05 3.26616791e-05 5.77663013e-05 5.77663013e-05
      5.77663013e-05 7.33456181e-05 7.33456181e-05 7.33456181e-05
      7.88776451e-05 7.88776451e-05 7.88776451e-05 8.74101970e-05
      8.74101970e-05 8.74101970e-05 7.78307076e-05 7.78307076e-05
      7.78307076e-05 7.45412472e-05 7.45412472e-05 7.45412472e-05
      3.69267764e-05 3.69267764e-05 3.69267764e-05 1.28428474e-05
      1.28428474e-05 1.28428474e-05 -2.65934460e-07 -2.65934460e-07
      -2.65934460e-07 -4.65814264e-06 -4.65814264e-06 -4.65814264e-06
      -1.18497419e-05 -1.18497419e-05 -1.18497419e-05 -2.67364503e-05
      -2.67364503e-05 -2.67364503e-05 -2.80150543e-05 -2.80150543e-05
      -2.80150543e-05 -2.22414219e-05 -2.22414219e-05 -2.22414219e-05
      2.21638493e-06 2.21638493e-06 2.21638493e-06 -1.93549422e-05
      -1.93549422e-05 -1.93549422e-05 -1.15639144e-04 -1.15639144e-04
      -1.15639144e-04 -1.59958236e-05 -1.59958236e-05 -1.59958236e-05
      2.51454676e-05 2.51454676e-05 2.51454676e-05 -3.92476541e-05
      -3.92476541e-05 -3.92476541e-05 6.88072978e-05 6.88072978e-05
      6.88072978e-05 1.45663580e-04 1.45663580e-04 1.45663580e-04
      1.00840000e-04 1.00840000e-04 1.00840000e-04 -1.43426223e-04
      -1.43426223e-04 -1.43426223e-04 -9.20904931e-05 -9.20904931e-05
      -9.20904931e-05 -2.90955431e-05 -2.90955431e-05 -2.90955431e-05
      5.96794816e-05 5.96794816e-05 5.96794816e-05 3.89589186e-05
      3.89589186e-05 3.89589186e-05 4.80585259e-05 4.80585259e-05
      4.80585259e-05 -6.76178070e-06 -6.76178070e-06 -6.76178070e-06
      -1.62515335e-05 -1.62515335e-05 -1.62515335e-05 6.84930319e-06
      6.84930319e-06 6.84930319e-06 -1.66939128e-06 -1.66939128e-06
      -1.66939128e-06 -1.78369210e-05 -1.78369210e-05 -1.78369210e-05
      -6.96973211e-06 -6.96973211e-06 -6.96973211e-06 1.16994743e-05
      1.16994743e-05 1.16994743e-05 2.13002459e-05 2.13002459e-05
      2.13002459e-05 3.64465377e-05 3.64465377e-05 3.64465377e-05
      1.43429033e-05 1.43429033e-05 1.43429033e-05 4.60950396e-05
      4.60950396e-05 4.60950396e-05 5.77753744e-05 5.77753744e-05
      5.77753744e-05 5.96624523e-05 5.96624523e-05 5.96624523e-05
      6.74930270e-05 6.74930270e-05 6.74930270e-05 6.61931917e-05
      6.61931917e-05 6.61931917e-05 5.61479283e-05 5.61479283e-05
      5.61479283e-05 5.58912507e-05 5.58912507e-05 5.58912507e-05
      4.26989500e-05 4.26989500e-05 4.26989500e-05 2.41789621e-05
      2.41789621e-05 2.41789621e-05 9.26920711e-06 9.26920711e-06
      9.26920711e-06 5.27610791e-06 5.27610791e-06 5.27610791e-06
      2.91363745e-06 2.91363745e-06 2.91363745e-06 -5.59791943e-06
      -5.59791943e-06 -5.59791943e-06 -9.05119305e-06 -9.05119305e-06
      -9.05119305e-06 -1.39767271e-05 -1.39767271e-05 -1.39767271e-05
      2.22578747e-05 2.22578747e-05 2.22578747e-05 2.58561013e-05
      2.58561013e-05 2.58561013e-05 -4.73693435e-05 -4.73693435e-05
      -4.73693435e-05 2.49237801e-05 2.49237801e-05 2.49237801e-05
      7.51906991e-05 7.51906991e-05 7.51906991e-05 -1.40780176e-04
      -1.40780176e-04 -1.40780176e-04 -5.47129202e-05 -5.47129202e-05
      -5.47129202e-05 1.22244834e-04 1.22244834e-04 1.22244834e-04
      1.20996185e-04 1.20996185e-04 1.20996185e-04 -7.68738100e-05
      -7.68738100e-05 -7.68738100e-05 -6.50639122e-05 -6.50639122e-05
      -6.50639122e-05 -1.06166830e-04 -1.06166830e-04 -1.06166830e-04
      -3.50848932e-05 -3.50848932e-05 -3.50848932e-05 3.92389593e-05
      3.92389593e-05 3.92389593e-05 3.13379351e-05 3.13379351e-05
      3.13379351e-05 -2.78098526e-07 -2.78098526e-07 -2.78098526e-07
      -2.22987683e-06 -2.22987683e-06 -2.22987683e-06 7.20618891e-06
      7.20618891e-06 7.20618891e-06 -3.07349692e-05 -3.07349692e-05
      -3.07349692e-05 -4.22773774e-05 -4.22773774e-05 -4.22773774e-05
      -3.28030401e-05 -3.28030401e-05 -3.28030401e-05 -2.80103413e-05
      -2.80103413e-05 -2.80103413e-05 -1.54571571e-05 -1.54571571e-05
      -1.54571571e-05 1.89615639e-05 1.89615639e-05 1.89615639e-05
      1.11798781e-05 1.11798781e-05 1.11798781e-05 4.88997903e-05
      4.88997903e-05 4.88997903e-05 5.26263029e-05 5.26263029e-05
      5.26263029e-05 5.77908831e-05 5.77908831e-05 5.77908831e-05
      8.23010123e-05 8.23010123e-05 8.23010123e-05 9.08209549e-05
      9.08209549e-05 9.08209549e-05 7.86502715e-05 7.86502715e-05
      7.86502715e-05 5.62575042e-05 5.62575042e-05 5.62575042e-05
      3.00496231e-05 3.00496231e-05 3.00496231e-05 3.13355958e-05
      3.13355958e-05 3.13355958e-05 2.33428618e-05 2.33428618e-05
      2.33428618e-05 1.85093049e-05 1.85093049e-05 1.85093049e-05
      2.42651749e-05 2.42651749e-05 2.42651749e-05 1.37193283e-05
      1.37193283e-05 1.37193283e-05 -2.14314105e-06 -2.14314105e-06
      -2.14314105e-06 -2.12310770e-05 -2.12310770e-05 -2.12310770e-05
      -6.97580617e-05 -6.97580617e-05 -6.97580617e-05 -1.09703193e-04
      -1.09703193e-04 -1.09703193e-04 -8.43391244e-05 -8.43391244e-05
      -8.43391244e-05 3.51428171e-05 3.51428171e-05 3.51428171e-05
      -6.48794094e-06 -6.48794094e-06 -6.48794094e-06 -1.56706155e-04
      -1.56706155e-04 -1.56706155e-04 -3.74632182e-05 -3.74632182e-05
      -3.74632182e-05 9.15149503e-05 9.15149503e-05 9.15149503e-05
      1.20784192e-04 1.20784192e-04 1.20784192e-04 -1.10186620e-05
      -1.10186620e-05 -1.10186620e-05 -4.34786380e-05 -4.34786380e-05
      -4.34786380e-05 6.70060181e-05 6.70060181e-05 6.70060181e-05
      6.56343327e-05 6.56343327e-05 6.56343327e-05 9.87453022e-05
      9.87453022e-05 9.87453022e-05 5.26575241e-05 5.26575241e-05
      5.26575241e-05 -4.77998146e-05 -4.77998146e-05 -4.77998146e-05
      -4.81546558e-05 -4.81546558e-05 -4.81546558e-05 -4.09245877e-05
      -4.09245877e-05 -4.09245877e-05 -5.87791583e-05 -5.87791583e-05
      -5.87791583e-05 -6.87049032e-05 -6.87049032e-05 -6.87049032e-05
      -6.10634743e-05 -6.10634743e-05 -6.10634743e-05 -5.19194145e-05
      -5.19194145e-05 -5.19194145e-05 -3.57712925e-05 -3.57712925e-05
      -3.57712925e-05 -6.29626038e-06 -6.29626038e-06 -6.29626038e-06
      1.79711406e-05 1.79711406e-05 1.79711406e-05 3.35092591e-05
      3.35092591e-05 3.35092591e-05 2.65452363e-05 2.65452363e-05
      2.65452363e-05 2.63453712e-05 2.63453712e-05 2.63453712e-05
      6.00391686e-05 6.00391686e-05 6.00391686e-05 8.10780621e-05
      8.10780621e-05 8.10780621e-05 7.22316690e-05 7.22316690e-05
      7.22316690e-05 3.99561432e-05 3.99561432e-05 3.99561432e-05
      1.34492675e-05 1.34492675e-05 1.34492675e-05 1.99107963e-05
      1.99107963e-05 1.99107963e-05 1.73564949e-05 1.73564949e-05
      1.73564949e-05 6.57461942e-06 6.57461942e-06 6.57461942e-06
      1.70283215e-06 1.70283215e-06 1.70283215e-06 -1.53671917e-05
      -1.53671917e-05 -1.53671917e-05 -2.14654701e-05 -2.14654701e-05
      -2.14654701e-05 -3.94838353e-05 -3.94838353e-05 -3.94838353e-05
      -2.04299195e-05 -2.04299195e-05 -2.04299195e-05 -4.33775858e-05
      -4.33775858e-05 -4.33775858e-05 -7.71631458e-05 -7.71631458e-05
      -7.71631458e-05 1.04875624e-04 1.04875624e-04 1.04875624e-04
      7.86858145e-05 7.86858145e-05 7.86858145e-05 1.16758702e-05
      1.16758702e-05 1.16758702e-05 1.67444487e-05 1.67444487e-05
      1.67444487e-05 1.22585800e-04 1.22585800e-04 1.22585800e-04
      9.43402847e-05 9.43402847e-05 9.43402847e-05 3.95442148e-05
      3.95442148e-05 3.95442148e-05 -7.69116127e-07 -7.69116127e-07
      -7.69116127e-07 3.82400212e-05 3.82400212e-05 3.82400212e-05
      -2.03182640e-06 -2.03182640e-06 -2.03182640e-06 3.85530730e-05
      3.85530730e-05 3.85530730e-05 1.81334817e-05 1.81334817e-05
      1.81334817e-05 -8.91743402e-05 -8.91743402e-05 -8.91743402e-05
      -9.62592458e-05 -9.62592458e-05 -9.62592458e-05 -5.99894265e-05
      -5.99894265e-05 -5.99894265e-05 -6.33680902e-05 -6.33680902e-05
      -6.33680902e-05 -9.53826093e-05 -9.53826093e-05 -9.53826093e-05
      -1.01290731e-04 -1.01290731e-04 -1.01290731e-04 -8.43495800e-05
      -8.43495800e-05 -8.43495800e-05 -5.06113101e-05 -5.06113101e-05
      -5.06113101e-05 -4.86454155e-06 -4.86454155e-06 -4.86454155e-06
      3.77276629e-05 3.77276629e-05 3.77276629e-05 5.02522089e-05
      5.02522089e-05 5.02522089e-05 5.19654095e-05 5.19654095e-05
      5.19654095e-05 2.00683480e-05 2.00683480e-05 2.00683480e-05
      2.39990459e-05 2.39990459e-05 2.39990459e-05 4.06728323e-05
      4.06728323e-05 4.06728323e-05 3.56571836e-05 3.56571836e-05
      3.56571836e-05 1.96376113e-05 1.96376113e-05 1.96376113e-05
      2.24414944e-05 2.24414944e-05 2.24414944e-05 1.40852844e-05
      1.40852844e-05 1.40852844e-05 8.19465458e-06 8.19465458e-06
      8.19465458e-06 5.34875244e-06 5.34875244e-06 5.34875244e-06
      -2.52331483e-06 -2.52331483e-06 -2.52331483e-06 -8.88850718e-06
      -8.88850718e-06 -8.88850718e-06 2.23535449e-06 2.23535449e-06
      2.23535449e-06 -1.63324203e-05 -1.63324203e-05 -1.63324203e-05
      1.15247703e-05 1.15247703e-05 1.15247703e-05 -4.29957508e-05
      -4.29957508e-05 -4.29957508e-05 -1.05644089e-04 -1.05644089e-04
      -1.05644089e-04 1.37092255e-04 1.37092255e-04 1.37092255e-04
      1.06191110e-04 1.06191110e-04 1.06191110e-04 6.10158131e-05
      6.10158131e-05 6.10158131e-05 9.51476432e-06 9.51476432e-06
      9.51476432e-06 1.16422358e-04 1.16422358e-04 1.16422358e-04
      1.16049960e-04 1.16049960e-04 1.16049960e-04 5.81901622e-05
      5.81901622e-05 5.81901622e-05 4.59047005e-05 4.59047005e-05
      4.59047005e-05 1.71707870e-05 1.71707870e-05 1.71707870e-05
      -7.21413671e-05 -7.21413671e-05 -7.21413671e-05 -2.23462630e-05
      -2.23462630e-05 -2.23462630e-05 -3.71489696e-05 -3.71489696e-05
      -3.71489696e-05 -1.45447571e-04 -1.45447571e-04 -1.45447571e-04
      -1.35582915e-04 -1.35582915e-04 -1.35582915e-04 -8.37128682e-05
      -8.37128682e-05 -8.37128682e-05 -6.83624021e-05 -6.83624021e-05
      -6.83624021e-05 -9.39633974e-05 -9.39633974e-05 -9.39633974e-05
      -1.00653728e-04 -1.00653728e-04 -1.00653728e-04 -8.02551076e-05
      -8.02551076e-05 -8.02551076e-05 -5.46277734e-05 -5.46277734e-05
      -5.46277734e-05 -1.28084712e-05 -1.28084712e-05 -1.28084712e-05
      3.94935705e-05 3.94935705e-05 3.94935705e-05 7.94969019e-05
      7.94969019e-05 7.94969019e-05 1.14967166e-04 1.14967166e-04
      1.14967166e-04 5.99765444e-05 5.99765444e-05 5.99765444e-05
      1.84597284e-05 1.84597284e-05 1.84597284e-05 1.25599645e-05
      1.25599645e-05 1.25599645e-05 1.34687161e-05 1.34687161e-05
      1.34687161e-05 1.51039558e-05 1.51039558e-05 1.51039558e-05
      2.45136453e-05 2.45136453e-05 2.45136453e-05 7.90438571e-06
      7.90438571e-06 7.90438571e-06 4.98023064e-06 4.98023064e-06
      4.98023064e-06 7.96245604e-06 7.96245604e-06 7.96245604e-06
      -5.24429515e-06 -5.24429515e-06 -5.24429515e-06 -2.02686351e-05
      -2.02686351e-05 -2.02686351e-05 4.29207876e-06 4.29207876e-06
      4.29207876e-06 4.27139594e-06 4.27139594e-06 4.27139594e-06
      9.80769710e-06 9.80769710e-06 9.80769710e-06 3.26208209e-07
      3.26208209e-07 3.26208209e-07 -4.20524666e-05 -4.20524666e-05
      -4.20524666e-05 -2.58798736e-05 -2.58798736e-05 -2.58798736e-05
      3.45040166e-06 3.45040166e-06 3.45040166e-06 -3.72877039e-05
      -3.72877039e-05 -3.72877039e-05 1.36871486e-05 1.36871486e-05
      1.36871486e-05 8.12576254e-05 8.12576254e-05 8.12576254e-05
      1.90344763e-05 1.90344763e-05 1.90344763e-05 6.23371216e-06
      6.23371216e-06 6.23371216e-06 2.93330286e-05 2.93330286e-05
      2.93330286e-05 4.05325409e-05 4.05325409e-05 4.05325409e-05
      -5.63732065e-05 -5.63732065e-05 -5.63732065e-05 1.67633061e-05
      1.67633061e-05 1.67633061e-05 -6.02303990e-05 -6.02303990e-05
      -6.02303990e-05 -1.37463925e-04 -1.37463925e-04 -1.37463925e-04
      -1.46013452e-04 -1.46013452e-04 -1.46013452e-04 -7.27831502e-05
      -7.27831502e-05 -7.27831502e-05 -9.60980178e-05 -9.60980178e-05
      -9.60980178e-05 -7.28731684e-05 -7.28731684e-05 -7.28731684e-05
      -9.16496720e-05 -9.16496720e-05 -9.16496720e-05 -9.81513149e-05
      -9.81513149e-05 -9.81513149e-05 -4.91425999e-05 -4.91425999e-05
      -4.91425999e-05 -3.28327260e-05 -3.28327260e-05 -3.28327260e-05
      9.62212562e-06 9.62212562e-06 9.62212562e-06 2.29258021e-05
      2.29258021e-05 2.29258021e-05 8.29332275e-05 8.29332275e-05
      8.29332275e-05 4.50968473e-05 4.50968473e-05 4.50968473e-05
      2.17732281e-06 2.17732281e-06 2.17732281e-06 4.66757192e-05
      4.66757192e-05 4.66757192e-05 4.77856629e-05 4.77856629e-05
      4.77856629e-05 1.57193354e-05 1.57193354e-05 1.57193354e-05
      -1.26372299e-06 -1.26372299e-06 -1.26372299e-06 2.85815531e-05
      2.85815531e-05 2.85815531e-05 3.97192380e-05 3.97192380e-05
      3.97192380e-05 5.51701851e-05 5.51701851e-05 5.51701851e-05
      8.09204066e-05 8.09204066e-05 8.09204066e-05 4.37185772e-05
      4.37185772e-05 4.37185772e-05 -4.74250155e-05 -4.74250155e-05
      -4.74250155e-05 -8.56757561e-06 -8.56757561e-06 -8.56757561e-06
      -2.95150348e-05 -2.95150348e-05 -2.95150348e-05 -1.67219569e-05
      -1.67219569e-05 -1.67219569e-05 -8.68085590e-06 -8.68085590e-06
      -8.68085590e-06 6.44675529e-05 6.44675529e-05 6.44675529e-05
      -1.74969191e-05 -1.74969191e-05 -1.74969191e-05 -1.41797966e-04
      -1.41797966e-04 -1.41797966e-04 3.53957853e-06 3.53957853e-06
      3.53957853e-06 9.57928933e-05 9.57928933e-05 9.57928933e-05
      1.31219145e-04 1.31219145e-04 1.31219145e-04 9.78831595e-05
      9.78831595e-05 9.78831595e-05 7.66001976e-05 7.66001976e-05
      7.66001976e-05 2.78317602e-05 2.78317602e-05 2.78317602e-05
      -5.64102411e-05 -5.64102411e-05 -5.64102411e-05 -6.82560349e-05
      -6.82560349e-05 -6.82560349e-05 -4.63006254e-05 -4.63006254e-05
      -4.63006254e-05 -7.77263558e-05 -7.77263558e-05 -7.77263558e-05
      -4.75877787e-05 -4.75877787e-05 -4.75877787e-05 -2.99878011e-05
      -2.99878011e-05 -2.99878011e-05 -5.77744104e-05 -5.77744104e-05
      -5.77744104e-05 -1.22989441e-04 -1.22989441e-04 -1.22989441e-04
      -1.31128720e-04 -1.31128720e-04 -1.31128720e-04 -9.84202561e-05
      -9.84202561e-05 -9.84202561e-05 -4.77876019e-05 -4.77876019e-05
      -4.77876019e-05 5.30757825e-06 5.30757825e-06 5.30757825e-06
      3.64937805e-05 3.64937805e-05 3.64937805e-05 1.53234919e-06
      1.53234919e-06 1.53234919e-06 5.12833176e-05 5.12833176e-05
      5.12833176e-05 7.88196485e-05 7.88196485e-05 7.88196485e-05
      3.46688503e-05 3.46688503e-05 3.46688503e-05 6.18531049e-05
      6.18531049e-05 6.18531049e-05 6.77396165e-05 6.77396165e-05
      6.77396165e-05 2.70654218e-05 2.70654218e-05 2.70654218e-05
      5.39725479e-05 5.39725479e-05 5.39725479e-05 1.24616536e-05
      1.24616536e-05 1.24616536e-05 2.49503155e-05 2.49503155e-05
      2.49503155e-05 4.76318637e-05 4.76318637e-05 4.76318637e-05
      -6.42848272e-06 -6.42848272e-06 -6.42848272e-06 -5.08702178e-05
      -5.08702178e-05 -5.08702178e-05 -2.70140185e-06 -2.70140185e-06
      -2.70140185e-06 1.50825908e-05 1.50825908e-05 1.50825908e-05
      -3.96724281e-05 -3.96724281e-05 -3.96724281e-05 -2.31959093e-05
      -2.31959093e-05 -2.31959093e-05 -1.89883067e-05 -1.89883067e-05
      -1.89883067e-05 -5.32605773e-05 -5.32605773e-05 -5.32605773e-05
      -7.31035252e-05 -7.31035252e-05 -7.31035252e-05 -4.98592490e-05
      -4.98592490e-05 -4.98592490e-05 7.61290066e-05 7.61290066e-05
      7.61290066e-05 1.01151498e-04 1.01151498e-04 1.01151498e-04
      1.50084597e-04 1.50084597e-04 1.50084597e-04 4.88159567e-05
      4.88159567e-05 4.88159567e-05 1.93504129e-05 1.93504129e-05
      1.93504129e-05 2.37618751e-05 2.37618751e-05 2.37618751e-05
      -2.03405270e-05 -2.03405270e-05 -2.03405270e-05 3.87007167e-05
      3.87007167e-05 3.87007167e-05 7.34385458e-06 7.34385458e-06
      7.34385458e-06 -3.32416639e-05 -3.32416639e-05 -3.32416639e-05
      5.70710881e-06 5.70710881e-06 5.70710881e-06 -8.20794230e-05
      -8.20794230e-05 -8.20794230e-05 -1.13460919e-04 -1.13460919e-04
      -1.13460919e-04 -1.29273860e-04 -1.29273860e-04 -1.29273860e-04
      -1.00132616e-04 -1.00132616e-04 -1.00132616e-04 -9.55600553e-05
      -9.55600553e-05 -9.55600553e-05 -8.11192585e-05 -8.11192585e-05
      -8.11192585e-05 -3.01282325e-05 -3.01282325e-05 -3.01282325e-05
      1.34915954e-05 1.34915954e-05 1.34915954e-05 2.81666235e-05
      2.81666235e-05 2.81666235e-05 7.30362372e-05 7.30362372e-05
      7.30362372e-05 9.83755017e-05 9.83755017e-05 9.83755017e-05
      6.30277282e-05 6.30277282e-05 6.30277282e-05 6.47614725e-05
      6.47614725e-05 6.47614725e-05 9.31778923e-05 9.31778923e-05
      9.31778923e-05 8.69734431e-05 8.69734431e-05 8.69734431e-05
      2.20679449e-05 2.20679449e-05 2.20679449e-05 2.80366457e-05
      2.80366457e-05 2.80366457e-05 1.03417642e-05 1.03417642e-05
      1.03417642e-05 -1.35700275e-05 -1.35700275e-05 -1.35700275e-05
      -2.98475643e-05 -2.98475643e-05 -2.98475643e-05 -1.38010379e-04
      -1.38010379e-04 -1.38010379e-04 -6.49233916e-05 -6.49233916e-05
      -6.49233916e-05 -6.04484303e-05 -6.04484303e-05 -6.04484303e-05
      -1.95376750e-04 -1.95376750e-04 -1.95376750e-04 -1.55514164e-04
      -1.55514164e-04 -1.55514164e-04 -5.99357736e-05 -5.99357736e-05
      -5.99357736e-05 -1.10675603e-04 -1.10675603e-04 -1.10675603e-04
      5.18656198e-05 5.18656198e-05 5.18656198e-05 1.54323454e-04
      1.54323454e-04 1.54323454e-04 2.78986354e-05 2.78986354e-05
      2.78986354e-05 4.12191439e-05 4.12191439e-05 4.12191439e-05
      1.44707010e-04 1.44707010e-04 1.44707010e-04 1.66755690e-05
      1.66755690e-05 1.66755690e-05 4.26774895e-05 4.26774895e-05
      4.26774895e-05 -5.12699007e-05 -5.12699007e-05 -5.12699007e-05
      3.78371296e-05 3.78371296e-05 3.78371296e-05 -3.86747852e-05
      -3.86747852e-05 -3.86747852e-05 -1.19431890e-04 -1.19431890e-04
      -1.19431890e-04 -2.39519522e-05 -2.39519522e-05 -2.39519522e-05
      -3.68823494e-05 -3.68823494e-05 -3.68823494e-05 -1.21705743e-04
      -1.21705743e-04 -1.21705743e-04 -1.44823774e-04 -1.44823774e-04
      -1.44823774e-04 -1.67436461e-04 -1.67436461e-04 -1.67436461e-04
      -1.28729225e-04 -1.28729225e-04 -1.28729225e-04 -2.99671683e-05
      -2.99671683e-05 -2.99671683e-05 5.79297957e-05 5.79297957e-05
      5.79297957e-05 6.99359080e-05 6.99359080e-05 6.99359080e-05
      -2.03709824e-05 -2.03709824e-05 -2.03709824e-05 -2.33272374e-07
      -2.33272374e-07 -2.33272374e-07 4.23906095e-05 4.23906095e-05
      4.23906095e-05 4.97290530e-05 4.97290530e-05 4.97290530e-05
      -6.27218924e-06 -6.27218924e-06 -6.27218924e-06 -7.59616205e-06
      -7.59616205e-06 -7.59616205e-06 4.33988753e-05 4.33988753e-05
      4.33988753e-05 7.77759560e-05 7.77759560e-05 7.77759560e-05
      1.26333165e-04 1.26333165e-04 1.26333165e-04 9.53802664e-05
      9.53802664e-05 9.53802664e-05 4.99358293e-06 4.99358293e-06
      4.99358293e-06 -3.09321913e-05 -3.09321913e-05 -3.09321913e-05
      4.78292486e-06 4.78292486e-06 4.78292486e-06 2.91933266e-05
      2.91933266e-05 2.91933266e-05 9.10351446e-05 9.10351446e-05
      9.10351446e-05 8.16610263e-05 8.16610263e-05 8.16610263e-05
      -6.92565955e-05 -6.92565955e-05 -6.92565955e-05 9.50419872e-06
      9.50419872e-06 9.50419872e-06 3.30388320e-05 3.30388320e-05
      3.30388320e-05 3.78634613e-05 3.78634613e-05 3.78634613e-05
      5.43508431e-05 5.43508431e-05 5.43508431e-05 1.28195286e-04
      1.28195286e-04 1.28195286e-04 -3.86248103e-05 -3.86248103e-05
      -3.86248103e-05 -1.15867888e-05 -1.15867888e-05 -1.15867888e-05
      1.62979471e-04 1.62979471e-04 1.62979471e-04 -1.68725194e-06
      -1.68725194e-06 -1.68725194e-06 -1.09382469e-04 -1.09382469e-04
      -1.09382469e-04 -4.57897004e-05 -4.57897004e-05 -4.57897004e-05
      8.55190447e-05 8.55190447e-05 8.55190447e-05 -1.14360937e-05
      -1.14360937e-05 -1.14360937e-05 -6.62531093e-05 -6.62531093e-05
      -6.62531093e-05 5.70824113e-06 5.70824113e-06 5.70824113e-06
      1.33727037e-04 1.33727037e-04 1.33727037e-04 5.80147607e-05
      5.80147607e-05 5.80147607e-05 -5.00127026e-05 -5.00127026e-05
      -5.00127026e-05 -8.20582718e-05 -8.20582718e-05 -8.20582718e-05
      -7.22291443e-05 -7.22291443e-05 -7.22291443e-05 -4.97266810e-05
      -4.97266810e-05 -4.97266810e-05 -1.34158136e-05 -1.34158136e-05
      -1.34158136e-05 -8.19641791e-05 -8.19641791e-05 -8.19641791e-05
      -1.05443032e-04 -1.05443032e-04 -1.05443032e-04 -2.18616951e-05
      -2.18616951e-05 -2.18616951e-05 5.26415934e-05 5.26415934e-05
      5.26415934e-05 5.45623261e-05 5.45623261e-05 5.45623261e-05
      4.89469749e-05 4.89469749e-05 4.89469749e-05 1.36010131e-04
      1.36010131e-04 1.36010131e-04 1.12630616e-04 1.12630616e-04
      1.12630616e-04 3.45409899e-05 3.45409899e-05 3.45409899e-05
      3.26100817e-05 3.26100817e-05 3.26100817e-05 -1.87823425e-05
      -1.87823425e-05 -1.87823425e-05 -1.65350830e-05 -1.65350830e-05
      -1.65350830e-05 3.23648565e-05 3.23648565e-05 3.23648565e-05
      1.05755744e-05 1.05755744e-05 1.05755744e-05 1.27696339e-05
      1.27696339e-05 1.27696339e-05 3.44725340e-05 3.44725340e-05
      3.44725340e-05 7.10241729e-05 7.10241729e-05 7.10241729e-05
      -3.04262176e-05 -3.04262176e-05 -3.04262176e-05 -7.90291160e-05
      -7.90291160e-05 -7.90291160e-05 4.83198128e-05 4.83198128e-05
      4.83198128e-05 2.90227181e-05 2.90227181e-05 2.90227181e-05
      -3.47362511e-05 -3.47362511e-05 -3.47362511e-05 5.11436156e-05
      5.11436156e-05 5.11436156e-05 -3.44678119e-05 -3.44678119e-05
      -3.44678119e-05 2.92282039e-06 2.92282039e-06 2.92282039e-06
      7.58578972e-05 7.58578972e-05 7.58578972e-05 -1.28119020e-04
      -1.28119020e-04 -1.28119020e-04 -9.31517352e-05 -9.31517352e-05
      -9.31517352e-05 -4.27648265e-05 -4.27648265e-05 -4.27648265e-05
      8.55498183e-06 8.55498183e-06 8.55498183e-06 1.08120046e-04
      1.08120046e-04 1.08120046e-04 2.13320582e-05 2.13320582e-05
      2.13320582e-05 -2.22767885e-05 -2.22767885e-05 -2.22767885e-05
      1.34919552e-04 1.34919552e-04 1.34919552e-04 1.17438496e-04
      1.17438496e-04 1.17438496e-04 8.89494822e-06 8.89494822e-06
      8.89494822e-06 -4.41079510e-06 -4.41079510e-06 -4.41079510e-06
      -3.68249239e-05 -3.68249239e-05 -3.68249239e-05 -8.37875923e-05
      -8.37875923e-05 -8.37875923e-05 -4.64157310e-05 -4.64157310e-05
      -4.64157310e-05 -3.33165444e-05 -3.33165444e-05 -3.33165444e-05
      -5.23319795e-05 -5.23319795e-05 -5.23319795e-05 -5.05445278e-05
      -5.05445278e-05 -5.05445278e-05 -2.46343989e-05 -2.46343989e-05
      -2.46343989e-05 1.75395087e-06 1.75395087e-06 1.75395087e-06
      9.20293387e-05 9.20293387e-05 9.20293387e-05 1.87569283e-04
      1.87569283e-04 1.87569283e-04 1.48600011e-04 1.48600011e-04
      1.48600011e-04 7.56780282e-05 7.56780282e-05 7.56780282e-05
      4.46738159e-05 4.46738159e-05 4.46738159e-05 1.70674120e-05
      1.70674120e-05 1.70674120e-05 7.98544570e-05 7.98544570e-05
      7.98544570e-05 1.19381548e-04 1.19381548e-04 1.19381548e-04
      7.00016244e-05 7.00016244e-05 7.00016244e-05 2.10958679e-05
      2.10958679e-05 2.10958679e-05 6.12892836e-05 6.12892836e-05
      6.12892836e-05 1.09737623e-04 1.09737623e-04 1.09737623e-04
      7.02061152e-05 7.02061152e-05 7.02061152e-05 1.00039151e-05
      1.00039151e-05 1.00039151e-05 9.17635189e-05 9.17635189e-05
      9.17635189e-05 -7.92500941e-06 -7.92500941e-06 -7.92500941e-06
      8.84362817e-06 8.84362817e-06 8.84362817e-06 -7.92641856e-07
      -7.92641856e-07 -7.92641856e-07 -2.91896431e-05 -2.91896431e-05
      -2.91896431e-05 1.08888089e-04 1.08888089e-04 1.08888089e-04
      6.41401202e-05 6.41401202e-05 6.41401202e-05 4.94597516e-05
      4.94597516e-05 4.94597516e-05 1.34793983e-04 1.34793983e-04
      1.34793983e-04 4.55443151e-05 4.55443151e-05 4.55443151e-05
      -1.32403351e-04 -1.32403351e-04 -1.32403351e-04 5.96526843e-05
      5.96526843e-05 5.96526843e-05 2.63217080e-05 2.63217080e-05
      2.63217080e-05 -3.27018313e-07 -3.27018313e-07 -3.27018313e-07
      -5.45584444e-05 -5.45584444e-05 -5.45584444e-05 1.48503605e-05
      1.48503605e-05 1.48503605e-05 2.37083495e-05 2.37083495e-05
      2.37083495e-05 1.09221373e-05 1.09221373e-05 1.09221373e-05
      -1.11505426e-04 -1.11505426e-04 -1.11505426e-04 -1.78335278e-04
      -1.78335278e-04 -1.78335278e-04 -6.13200755e-05 -6.13200755e-05
      -6.13200755e-05 -4.61975214e-05 -4.61975214e-05 -4.61975214e-05
      -4.99907728e-05 -4.99907728e-05 -4.99907728e-05 -5.40507099e-05
      -5.40507099e-05 -5.40507099e-05 -3.86047614e-05 -3.86047614e-05
      -3.86047614e-05 -4.26458828e-05 -4.26458828e-05 -4.26458828e-05
      5.74303558e-05 5.74303558e-05 5.74303558e-05 1.09380380e-04
      1.09380380e-04 1.09380380e-04 8.26831601e-05 8.26831601e-05
      8.26831601e-05 6.98600925e-05 6.98600925e-05 6.98600925e-05
      -3.37484998e-05 -3.37484998e-05 -3.37484998e-05 1.02072172e-05
      1.02072172e-05 1.02072172e-05 1.99612236e-06 1.99612236e-06
      1.99612236e-06 -9.03856926e-05 -9.03856926e-05 -9.03856926e-05
      -7.85244993e-05 -7.85244993e-05 -7.85244993e-05 -1.09175911e-04
      -1.09175911e-04 -1.09175911e-04 -3.57006866e-05 -3.57006866e-05
      -3.57006866e-05 -3.17669492e-06 -3.17669492e-06 -3.17669492e-06
      -2.86757368e-05 -2.86757368e-05 -2.86757368e-05 1.05663581e-04
      1.05663581e-04 1.05663581e-04 2.01975345e-04 2.01975345e-04
      2.01975345e-04 1.08004024e-04 1.08004024e-04 1.08004024e-04
      -5.55874431e-05 -5.55874431e-05 -5.55874431e-05 -8.32742298e-05
      -8.32742298e-05 -8.32742298e-05 -1.70840838e-04 -1.70840838e-04
      -1.70840838e-04 -3.75949385e-05 -3.75949385e-05 -3.75949385e-05
      1.58425668e-04 1.58425668e-04 1.58425668e-04 9.42999977e-05
      9.42999977e-05 9.42999977e-05 7.41975164e-05 7.41975164e-05
      7.41975164e-05 4.14683473e-06 4.14683473e-06 4.14683473e-06
      -1.29524313e-04 -1.29524313e-04 -1.29524313e-04 -8.24885938e-05
      -8.24885938e-05 -8.24885938e-05 -3.94989111e-05 -3.94989111e-05
      -3.94989111e-05 -4.72113097e-05 -4.72113097e-05 -4.72113097e-05
      -1.44223923e-05 -1.44223923e-05 -1.44223923e-05 3.32285963e-05
      3.32285963e-05 3.32285963e-05 1.12711969e-05 1.12711969e-05
      1.12711969e-05 2.08702440e-05 2.08702440e-05 2.08702440e-05
      -5.49914002e-05 -5.49914002e-05 -5.49914002e-05 -1.15460498e-04
      -1.15460498e-04 -1.15460498e-04 -1.01810416e-04 -1.01810416e-04
      -1.01810416e-04 -8.17042528e-05 -8.17042528e-05 -8.17042528e-05
      -4.11533765e-05 -4.11533765e-05 -4.11533765e-05 -5.11072576e-05
      -5.11072576e-05 -5.11072576e-05 1.13668630e-05 1.13668630e-05
      1.13668630e-05 -3.46231136e-05 -3.46231136e-05 -3.46231136e-05
      -5.68552241e-06 -5.68552241e-06 -5.68552241e-06 -5.87162322e-06
      -5.87162322e-06 -5.87162322e-06 -6.26372566e-05 -6.26372566e-05
      -6.26372566e-05 -1.12401729e-04 -1.12401729e-04 -1.12401729e-04
      -4.92800900e-05 -4.92800900e-05 -4.92800900e-05 4.41891934e-05
      4.41891934e-05 4.41891934e-05 -1.26949335e-05 -1.26949335e-05
      -1.26949335e-05 -1.09651613e-04 -1.09651613e-04 -1.09651613e-04
      -8.61856679e-05 -8.61856679e-05 -8.61856679e-05 -1.62097698e-04
      -1.62097698e-04 -1.62097698e-04 -2.10870130e-04 -2.10870130e-04
      -2.10870130e-04 -2.26059550e-04 -2.26059550e-04 -2.26059550e-04
      -1.19976365e-04 -1.19976365e-04 -1.19976365e-04 3.70445705e-05
      3.70445705e-05 3.70445705e-05 1.47109415e-04 1.47109415e-04
      1.47109415e-04 5.94203593e-05 5.94203593e-05 5.94203593e-05
      -2.04251570e-04 -2.04251570e-04 -2.04251570e-04 -1.18704869e-04
      -1.18704869e-04 -1.18704869e-04 -1.93853863e-04 -1.93853863e-04
      -1.93853863e-04 -4.37150702e-05 -4.37150702e-05 -4.37150702e-05</_></support_vectors>
  <uncompressed_sv_total>149</uncompressed_sv_total>
  <uncompressed_support_vectors>
    <_>
      0. 0. 0. 15. 15. 15. 57. 57. 57. 100. 100. 100. 119. 119. 119.
      114. 114. 114. 111. 111. 111. 114. 114. 114. 116. 116. 116. 116.
      116. 116. 117. 117. 117. 119. 119. 119. 120. 120. 120. 121. 121.
      121. 122. 122. 122. 123. 123. 123. 119. 119. 119. 88. 88. 88. 17.
      17. 17. 80. 80. 80. 141. 141. 141. 126. 126. 126. 114. 114. 114.
      35. 35. 35. 0. 0. 0. 4. 4. 4. 17. 17. 17. 18. 18. 18. 0. 0. 0. 9.
      9. 9. 7. 7. 7. 146. 146. 146. 166. 166. 166. 181. 181. 181. 172.
      172. 172. 179. 179. 179. 190. 190. 190. 190. 190. 190. 199. 199.
      199. 198. 198. 198. 74. 74. 74. 79. 79. 79. 95. 95. 95. 112. 112.
      112. 115. 115. 115. 107. 107. 107. 106. 106. 106. 113. 113. 113.
      114. 114. 114. 114. 114. 114. 115. 115. 115. 116. 116. 116. 117.
      117. 117. 118. 118. 118. 119. 119. 119. 119. 119. 119. 127. 127.
      127. 112. 112. 112. 64. 64. 64. 98. 98. 98. 127. 127. 127. 121.
      121. 121. 142. 142. 142. 116. 116. 116. 122. 122. 122. 111. 111.
      111. 94. 94. 94. 78. 78. 78. 6. 6. 6. 0. 0. 0. 6. 6. 6. 146. 146.
      146. 139. 139. 139. 50. 50. 50. 28. 28. 28. 51. 51. 51. 131. 131.
      131. 195. 195. 195. 177. 177. 177. 194. 194. 194. 118. 118. 118.
      113. 113. 113. 112. 112. 112. 113. 113. 113. 109. 109. 109. 102.
      102. 102. 106. 106. 106. 116. 116. 116. 112. 112. 112. 112. 112.
      112. 112. 112. 112. 113. 113. 113. 114. 114. 114. 114. 114. 114.
      114. 114. 114. 115. 115. 115. 120. 120. 120. 124. 124. 124. 115.
      115. 115. 126. 126. 126. 125. 125. 125. 116. 116. 116. 134. 134.
      134. 140. 140. 140. 138. 138. 138. 118. 118. 118. 25. 25. 25. 0.
      0. 0. 0. 0. 0. 12. 12. 12. 32. 32. 32. 129. 129. 129. 106. 106.
      106. 0. 0. 0. 0. 0. 0. 1. 1. 1. 21. 21. 21. 129. 129. 129. 184.
      184. 184. 184. 184. 184. 110. 110. 110. 107. 107. 107. 106. 106.
      106. 108. 108. 108. 106. 106. 106. 103. 103. 103. 107. 107. 107.
      115. 115. 115. 111. 111. 111. 111. 111. 111. 111. 111. 111. 111.
      111. 111. 111. 111. 111. 111. 111. 111. 112. 112. 112. 112. 112.
      112. 114. 114. 114. 115. 115. 115. 127. 127. 127. 131. 131. 131.
      127. 127. 127. 120. 120. 120. 112. 112. 112. 118. 118. 118. 115.
      115. 115. 155. 155. 155. 50. 50. 50. 0. 0. 0. 16. 16. 16. 12. 12.
      12. 11. 11. 11. 84. 84. 84. 63. 63. 63. 34. 34. 34. 0. 0. 0. 2. 2.
      2. 53. 53. 53. 101. 101. 101. 154. 154. 154. 179. 179. 179. 109.
      109. 109. 108. 108. 108. 108. 108. 108. 109. 109. 109. 108. 108.
      108. 105. 105. 105. 105. 105. 105. 108. 108. 108. 110. 110. 110.
      110. 110. 110. 110. 110. 110. 110. 110. 110. 111. 111. 111. 111.
      111. 111. 111. 111. 111. 111. 111. 111. 118. 118. 118. 107. 107.
      107. 115. 115. 115. 113. 113. 113. 118. 118. 118. 126. 126. 126.
      117. 117. 117. 124. 124. 124. 115. 115. 115. 125. 125. 125. 47.
      47. 47. 45. 45. 45. 95. 95. 95. 124. 124. 124. 125. 125. 125. 118.
      118. 118. 133. 133. 133. 41. 41. 41. 0. 0. 0. 3. 3. 3. 0. 0. 0. 0.
      0. 0. 92. 92. 92. 169. 169. 169. 114. 114. 114. 111. 111. 111.
      109. 109. 109. 107. 107. 107. 106. 106. 106. 105. 105. 105. 106.
      106. 106. 107. 107. 107. 108. 108. 108. 109. 109. 109. 109. 109.
      109. 109. 109. 109. 110. 110. 110. 111. 111. 111. 111. 111. 111.
      111. 111. 111. 112. 112. 112. 109. 109. 109. 115. 115. 115. 112.
      112. 112. 113. 113. 113. 119. 119. 119. 117. 117. 117. 124. 124.
      124. 128. 128. 128. 131. 131. 131. 109. 109. 109. 81. 81. 81. 62.
      62. 62. 123. 123. 123. 142. 142. 142. 36. 36. 36. 0. 0. 0. 0. 0.
      0. 7. 7. 7. 2. 2. 2. 8. 8. 8. 0. 0. 0. 6. 6. 6. 149. 149. 149.
      107. 107. 107. 106. 106. 106. 105. 105. 105. 104. 104. 104. 105.
      105. 105. 107. 107. 107. 107. 107. 107. 107. 107. 107. 106. 106.
      106. 106. 106. 106. 107. 107. 107. 108. 108. 108. 109. 109. 109.
      110. 110. 110. 111. 111. 111. 111. 111. 111. 105. 105. 105. 113.
      113. 113. 115. 115. 115. 118. 118. 118. 114. 114. 114. 109. 109.
      109. 111. 111. 111. 109. 109. 109. 109. 109. 109. 115. 115. 115.
      129. 129. 129. 126. 126. 126. 142. 142. 142. 223. 223. 223. 233.
      233. 233. 120. 120. 120. 47. 47. 47. 0. 0. 0. 9. 9. 9. 0. 0. 0. 0.
      0. 0. 7. 7. 7. 7. 7. 7. 38. 38. 38. 102. 102. 102. 105. 105. 105.
      107. 107. 107. 108. 108. 108. 108. 108. 108. 108. 108. 108. 104.
      104. 104. 99. 99. 99. 103. 103. 103. 104. 104. 104. 105. 105. 105.
      106. 106. 106. 108. 108. 108. 109. 109. 109. 110. 110. 110. 111.
      111. 111. 110. 110. 110. 116. 116. 116. 104. 104. 104. 109. 109.
      109. 110. 110. 110. 108. 108. 108. 119. 119. 119. 112. 112. 112.
      114. 114. 114. 118. 118. 118. 117. 117. 117. 109. 109. 109. 116.
      116. 116. 132. 132. 132. 187. 187. 187. 255. 255. 255. 149. 149.
      149. 56. 56. 56. 0. 0. 0. 4. 4. 4. 1. 1. 1. 0. 0. 0. 11. 11. 11.
      2. 2. 2. 109. 109. 109. 112. 112. 112. 109. 109. 109. 102. 102.
      102. 101. 101. 101. 106. 106. 106. 107. 107. 107. 102. 102. 102.
      103. 103. 103. 104. 104. 104. 105. 105. 105. 106. 106. 106. 106.
      106. 106. 106. 106. 106. 106. 106. 106. 106. 106. 106. 108. 108.
      108. 108. 108. 108. 109. 109. 109. 110. 110. 110. 111. 111. 111.
      112. 112. 112. 112. 112. 112. 113. 113. 113. 110. 110. 110. 122.
      122. 122. 111. 111. 111. 110. 110. 110. 116. 116. 116. 109. 109.
      109. 120. 120. 120. 139. 139. 139. 223. 223. 223. 159. 159. 159.
      0. 0. 0. 3. 3. 3. 0. 0. 0. 7. 7. 7. 0. 0. 0. 4. 4. 4. 100. 100.
      100. 104. 104. 104. 106. 106. 106. 104. 104. 104. 103. 103. 103.
      104. 104. 104. 104. 104. 104. 103. 103. 103. 102. 102. 102. 103.
      103. 103. 104. 104. 104. 105. 105. 105. 105. 105. 105. 105. 105.
      105. 105. 105. 105. 105. 105. 105. 105. 105. 105. 106. 106. 106.
      106. 106. 106. 107. 107. 107. 108. 108. 108. 109. 109. 109. 110.
      110. 110. 110. 110. 110. 110. 110. 110. 106. 106. 106. 108. 108.
      108. 114. 114. 114. 113. 113. 113. 117. 117. 117. 115. 115. 115.
      91. 91. 91. 41. 41. 41. 163. 163. 163. 94. 94. 94. 10. 10. 10. 0.
      0. 0. 25. 25. 25. 0. 0. 0. 1. 1. 1. 98. 98. 98. 99. 99. 99. 102.
      102. 102. 106. 106. 106. 105. 105. 105. 101. 101. 101. 101. 101.
      101. 104. 104. 104. 101. 101. 101. 102. 102. 102. 103. 103. 103.
      104. 104. 104. 104. 104. 104. 104. 104. 104. 103. 103. 103. 103.
      103. 103. 103. 103. 103. 103. 103. 103. 104. 104. 104. 104. 104.
      104. 105. 105. 105. 106. 106. 106. 106. 106. 106. 107. 107. 107.
      112. 112. 112. 101. 101. 101. 116. 116. 116. 118. 118. 118. 102.
      102. 102. 116. 116. 116. 123. 123. 123. 93. 93. 93. 122. 122. 122.
      160. 160. 160. 250. 250. 250. 213. 213. 213. 73. 73. 73. 28. 28.
      28. 28. 28. 28. 0. 0. 0. 107. 107. 107. 102. 102. 102. 101. 101.
      101. 106. 106. 106. 106. 106. 106. 101. 101. 101. 100. 100. 100.
      103. 103. 103. 101. 101. 101. 101. 101. 101. 102. 102. 102. 103.
      103. 103. 103. 103. 103. 103. 103. 103. 102. 102. 102. 102. 102.
      102. 102. 102. 102. 102. 102. 102. 102. 102. 102. 103. 103. 103.
      103. 103. 103. 104. 104. 104. 104. 104. 104. 104. 104. 104. 113.
      113. 113. 102. 102. 102. 112. 112. 112. 111. 111. 111. 106. 106.
      106. 113. 113. 113. 115. 115. 115. 117. 117. 117. 116. 116. 116.
      164. 164. 164. 245. 245. 245. 223. 223. 223. 204. 204. 204. 124.
      124. 124. 38. 38. 38. 25. 25. 25. 111. 111. 111. 105. 105. 105.
      102. 102. 102. 104. 104. 104. 105. 105. 105. 102. 102. 102. 101.
      101. 101. 102. 102. 102. 101. 101. 101. 102. 102. 102. 102. 102.
      102. 103. 103. 103. 102. 102. 102. 102. 102. 102. 101. 101. 101.
      101. 101. 101. 102. 102. 102. 102. 102. 102. 102. 102. 102. 103.
      103. 103. 103. 103. 103. 103. 103. 103. 103. 103. 103. 103. 103.
      103. 106. 106. 106. 100. 100. 100. 99. 99. 99. 101. 101. 101. 120.
      120. 120. 111. 111. 111. 98. 98. 98. 150. 150. 150. 117. 117. 117.
      40. 40. 40. 112. 112. 112. 157. 157. 157. 175. 175. 175. 143. 143.
      143. 74. 74. 74. 20. 20. 20. 86. 86. 86. 95. 95. 95. 103. 103.
      103. 104. 104. 104. 103. 103. 103. 104. 104. 104. 103. 103. 103.
      100. 100. 100. 102. 102. 102. 102. 102. 102. 103. 103. 103. 103.
      103. 103. 103. 103. 103. 102. 102. 102. 101. 101. 101. 100. 100.
      100. 102. 102. 102. 102. 102. 102. 102. 102. 102. 102. 102. 102.
      102. 102. 102. 102. 102. 102. 103. 103. 103. 103. 103. 103. 97.
      97. 97. 106. 106. 106. 110. 110. 110. 98. 98. 98. 111. 111. 111.
      99. 99. 99. 111. 111. 111. 223. 223. 223. 224. 224. 224. 121. 121.
      121. 163. 163. 163. 255. 255. 255. 252. 252. 252. 137. 137. 137.
      7. 7. 7. 0. 0. 0. 36. 36. 36. 72. 72. 72. 102. 102. 102. 106. 106.
      106. 101. 101. 101. 104. 104. 104. 105. 105. 105. 100. 100. 100.
      103. 103. 103. 103. 103. 103. 104. 104. 104. 104. 104. 104. 103.
      103. 103. 102. 102. 102. 101. 101. 101. 101. 101. 101. 101. 101.
      101. 101. 101. 101. 101. 101. 101. 101. 101. 101. 101. 101. 101.
      101. 101. 101. 101. 101. 101. 101. 101. 101. 100. 100. 100. 101.
      101. 101. 117. 117. 117. 100. 100. 100. 97. 97. 97. 95. 95. 95.
      115. 115. 115. 221. 221. 221. 248. 248. 248. 253. 253. 253. 225.
      225. 225. 211. 211. 211. 154. 154. 154. 86. 86. 86. 0. 0. 0. 44.
      44. 44. 0. 0. 0. 51. 51. 51. 101. 101. 101. 109. 109. 109. 101.
      101. 101. 103. 103. 103. 105. 105. 105. 101. 101. 101. 104. 104.
      104. 104. 104. 104. 104. 104. 104. 104. 104. 104. 104. 104. 104.
      103. 103. 103. 102. 102. 102. 101. 101. 101. 100. 100. 100. 100.
      100. 100. 100. 100. 100. 100. 100. 100. 100. 100. 100. 100. 100.
      100. 100. 100. 100. 100. 100. 100. 111. 111. 111. 80. 80. 80. 99.
      99. 99. 98. 98. 98. 104. 104. 104. 107. 107. 107. 84. 84. 84. 117.
      117. 117. 140. 140. 140. 244. 244. 244. 248. 248. 248. 210. 210.
      210. 103. 103. 103. 89. 89. 89. 53. 53. 53. 116. 116. 116. 79. 79.
      79. 108. 108. 108. 107. 107. 107. 106. 106. 106. 110. 110. 110.
      101. 101. 101. 104. 104. 104. 108. 108. 108. 104. 104. 104. 104.
      104. 104. 103. 103. 103. 102. 102. 102. 101. 101. 101. 101. 101.
      101. 100. 100. 100. 100. 100. 100. 101. 101. 101. 102. 102. 102.
      102. 102. 102. 101. 101. 101. 101. 101. 101. 99. 99. 99. 98. 98.
      98. 97. 97. 97. 98. 98. 98. 109. 109. 109. 95. 95. 95. 92. 92. 92.
      107. 107. 107. 96. 96. 96. 90. 90. 90. 119. 119. 119. 194. 194.
      194. 255. 255. 255. 246. 246. 246. 138. 138. 138. 57. 57. 57. 195.
      195. 195. 150. 150. 150. 96. 96. 96. 110. 110. 110. 91. 91. 91.
      110. 110. 110. 94. 94. 94. 97. 97. 97. 114. 114. 114. 111. 111.
      111. 99. 99. 99. 106. 106. 106. 105. 105. 105. 105. 105. 105. 104.
      104. 104. 103. 103. 103. 102. 102. 102. 102. 102. 102. 102. 102.
      102. 103. 103. 103. 102. 102. 102. 102. 102. 102. 101. 101. 101.
      100. 100. 100. 99. 99. 99. 99. 99. 99. 98. 98. 98. 85. 85. 85. 95.
      95. 95. 92. 92. 92. 96. 96. 96. 99. 99. 99. 91. 91. 91. 137. 137.
      137. 224. 224. 224. 237. 237. 237. 255. 255. 255. 247. 247. 247.
      137. 137. 137. 48. 48. 48. 190. 190. 190. 231. 231. 231. 95. 95.
      95. 101. 101. 101. 93. 93. 93. 177. 177. 177. 147. 147. 147. 104.
      104. 104. 101. 101. 101. 105. 105. 105. 108. 108. 108. 108. 108.
      108. 107. 107. 107. 107. 107. 107. 106. 106. 106. 105. 105. 105.
      104. 104. 104. 104. 104. 104. 103. 103. 103. 104. 104. 104. 102.
      102. 102. 101. 101. 101. 99. 99. 99. 98. 98. 98. 98. 98. 98. 99.
      99. 99. 100. 100. 100. 107. 107. 107. 106. 106. 106. 97. 97. 97.
      99. 99. 99. 100. 100. 100. 85. 85. 85. 109. 109. 109. 170. 170.
      170. 187. 187. 187. 193. 193. 193. 120. 120. 120. 88. 88. 88. 117.
      117. 117. 84. 84. 84. 95. 95. 95. 80. 80. 80. 59. 59. 59. 25. 25.
      25. 77. 77. 77. 77. 77. 77. 92. 92. 92. 102. 102. 102. 110. 110.
      110. 109. 109. 109. 108. 108. 108. 108. 108. 108. 107. 107. 107.
      106. 106. 106. 106. 106. 106. 105. 105. 105. 104. 104. 104. 104.
      104. 104. 104. 104. 104. 102. 102. 102. 99. 99. 99. 97. 97. 97.
      96. 96. 96. 97. 97. 97. 98. 98. 98. 99. 99. 99. 97. 97. 97. 102.
      102. 102. 95. 95. 95. 94. 94. 94. 106. 106. 106. 101. 101. 101.
      86. 86. 86. 84. 84. 84. 82. 82. 82. 87. 87. 87. 108. 108. 108.
      102. 102. 102. 100. 100. 100. 133. 133. 133. 194. 194. 194. 74.
      74. 74. 17. 17. 17. 0. 0. 0. 0. 0. 0. 38. 38. 38. 109. 109. 109.
      114. 114. 114. 111. 111. 111. 101. 101. 101. 108. 108. 108. 108.
      108. 108. 107. 107. 107. 106. 106. 106. 106. 106. 106. 105. 105.
      105. 104. 104. 104. 104. 104. 104. 103. 103. 103. 101. 101. 101.
      99. 99. 99. 96. 96. 96. 95. 95. 95. 96. 96. 96. 98. 98. 98. 99.
      99. 99. 90. 90. 90. 101. 101. 101. 102. 102. 102. 97. 97. 97. 100.
      100. 100. 100. 100. 100. 96. 96. 96. 94. 94. 94. 100. 100. 100.
      94. 94. 94. 92. 92. 92. 98. 98. 98. 110. 110. 110. 92. 92. 92. 94.
      94. 94. 88. 88. 88. 0. 0. 0. 13. 13. 13. 20. 20. 20. 66. 66. 66.
      104. 104. 104. 101. 101. 101. 103. 103. 103. 114. 114. 114. 109.
      109. 109. 108. 108. 108. 108. 108. 108. 107. 107. 107. 106. 106.
      106. 105. 105. 105. 105. 105. 105. 104. 104. 104. 104. 104. 104.
      102. 102. 102. 101. 101. 101. 99. 99. 99. 98. 98. 98. 98. 98. 98.
      99. 99. 99. 99. 99. 99. 108. 108. 108. 100. 100. 100. 100. 100.
      100. 105. 105. 105. 99. 99. 99. 87. 87. 87. 90. 90. 90. 102. 102.
      102. 96. 96. 96. 95. 95. 95. 104. 104. 104. 90. 90. 90. 86. 86.
      86. 100. 100. 100. 89. 89. 89. 98. 98. 98. 1. 1. 1. 0. 0. 0. 0. 0.
      0. 4. 4. 4. 22. 22. 22. 94. 94. 94. 110. 110. 110. 122. 122. 122.
      110. 110. 110. 110. 110. 110. 110. 110. 110. 109. 109. 109. 108.
      108. 108. 107. 107. 107. 107. 107. 107. 106. 106. 106. 106. 106.
      106. 105. 105. 105. 105. 105. 105. 104. 104. 104. 103. 103. 103.
      102. 102. 102. 102. 102. 102. 102. 102. 102. 99. 99. 99. 87. 87.
      87. 89. 89. 89. 101. 101. 101. 100. 100. 100. 95. 95. 95. 94. 94.
      94. 93. 93. 93. 93. 93. 93. 82. 82. 82. 106. 106. 106. 95. 95. 95.
      84. 84. 84. 100. 100. 100. 102. 102. 102. 88. 88. 88. 36. 36. 36.
      15. 15. 15. 13. 13. 13. 1. 1. 1. 0. 0. 0. 103. 103. 103. 112. 112.
      112. 110. 110. 110. 112. 112. 112. 112. 112. 112. 111. 111. 111.
      111. 111. 111. 110. 110. 110. 109. 109. 109. 108. 108. 108. 108.
      108. 108. 108. 108. 108. 108. 108. 108. 108. 108. 108. 108. 108.
      108. 107. 107. 107. 106. 106. 106. 104. 104. 104. 103. 103. 103.
      98. 98. 98. 106. 106. 106. 110. 110. 110. 96. 96. 96. 84. 84. 84.
      94. 94. 94. 100. 100. 100. 87. 87. 87. 99. 99. 99. 89. 89. 89. 90.
      90. 90. 82. 82. 82. 103. 103. 103. 82. 82. 82. 84. 84. 84. 86. 86.
      86. 117. 117. 117. 87. 87. 87. 24. 24. 24. 0. 0. 0. 0. 0. 0. 38.
      38. 38. 85. 85. 85. 125. 125. 125. 105. 105. 105. 106. 106. 106.
      111. 111. 111. 116. 116. 116. 114. 114. 114. 108. 108. 108. 109.
      109. 109. 113. 113. 113. 111. 111. 111. 110. 110. 110. 109. 109.
      109. 108. 108. 108. 106. 106. 106. 104. 104. 104. 103. 103. 103.
      103. 103. 103. 101. 101. 101. 102. 102. 102. 102. 102. 102. 102.
      102. 102. 101. 101. 101. 99. 99. 99. 97. 97. 97. 95. 95. 95. 91.
      91. 91. 97. 97. 97. 98. 98. 98. 96. 96. 96. 98. 98. 98. 93. 93.
      93. 69. 69. 69. 41. 41. 41. 174. 174. 174. 115. 115. 115. 75. 75.
      75. 53. 53. 53. 15. 15. 15. 0. 0. 0. 31. 31. 31. 70. 70. 70. 126.
      126. 126. 120. 120. 120. 113. 113. 113. 110. 110. 110. 111. 111.
      111. 113. 113. 113. 111. 111. 111. 109. 109. 109. 111. 111. 111.
      110. 110. 110. 109. 109. 109. 108. 108. 108. 107. 107. 107. 106.
      106. 106. 105. 105. 105. 105. 105. 105. 103. 103. 103. 103. 103.
      103. 103. 103. 103. 103. 103. 103. 101. 101. 101. 99. 99. 99. 97.
      97. 97. 95. 95. 95. 94. 94. 94. 96. 96. 96. 93. 93. 93. 89. 89.
      89. 93. 93. 93. 96. 96. 96. 85. 85. 85. 67. 67. 67. 110. 110. 110.
      93. 93. 93. 113. 113. 113. 119. 119. 119. 85. 85. 85. 72. 72. 72.
      52. 52. 52. 0. 0. 0. 56. 56. 56. 87. 87. 87. 114. 114. 114. 117.
      117. 117. 110. 110. 110. 108. 108. 108. 112. 112. 112. 114. 114.
      114. 110. 110. 110. 110. 110. 110. 110. 110. 110. 110. 110. 110.
      109. 109. 109. 109. 109. 109. 108. 108. 108. 108. 108. 108. 105.
      105. 105. 105. 105. 105. 105. 105. 105. 103. 103. 103. 102. 102.
      102. 99. 99. 99. 97. 97. 97. 96. 96. 96. 100. 100. 100. 101. 101.
      101. 97. 97. 97. 91. 91. 91. 93. 93. 93. 99. 99. 99. 97. 97. 97.
      88. 88. 88. 95. 95. 95. 108. 108. 108. 122. 122. 122. 112. 112.
      112. 107. 107. 107. 130. 130. 130. 99. 99. 99. 16. 16. 16. 14. 14.
      14. 63. 63. 63. 109. 109. 109. 119. 119. 119. 112. 112. 112. 110.
      110. 110. 113. 113. 113. 113. 113. 113. 110. 110. 110. 110. 110.
      110. 111. 111. 111. 111. 111. 111. 111. 111. 111. 111. 111. 111.
      111. 111. 111. 111. 111. 111. 108. 108. 108. 107. 107. 107. 106.
      106. 106. 105. 105. 105. 103. 103. 103. 100. 100. 100. 99. 99. 99.
      98. 98. 98. 99. 99. 99. 102. 102. 102. 101. 101. 101. 96. 96. 96.
      94. 94. 94. 96. 96. 96. 93. 93. 93. 88. 88. 88. 120. 120. 120.
      121. 121. 121. 113. 113. 113. 108. 108. 108. 115. 115. 115. 115.
      115. 115. 106. 106. 106. 100. 100. 100. 82. 82. 82. 98. 98. 98.
      109. 109. 109. 108. 108. 108. 112. 112. 112. 120. 120. 120. 116.
      116. 116. 104. 104. 104. 111. 111. 111. 111. 111. 111. 111. 111.
      111. 111. 111. 111. 112. 112. 112. 112. 112. 112. 112. 112. 112.
      112. 112. 112. 110. 110. 110. 109. 109. 109. 107. 107. 107. 105.
      105. 105. 104. 104. 104. 102. 102. 102. 101. 101. 101. 101. 101.
      101. 96. 96. 96. 98. 98. 98. 97. 97. 97. 94. 94. 94. 92. 92. 92.
      93. 93. 93. 93. 93. 93. 91. 91. 91. 102. 102. 102. 105. 105. 105.
      93. 93. 93. 93. 93. 93. 111. 111. 111. 109. 109. 109. 104. 104.
      104. 121. 121. 121. 114. 114. 114. 119. 119. 119. 117. 117. 117.
